{"dense1": {"bias": [-0.04125862941145897, -0.017286399379372597, -0.037957239896059036, 0.06534799933433533, 0.08996041119098663, -0.10700004547834396, -0.13530008494853973, -0.0813932940363884, -0.029646191745996475, -0.04427416995167732, 0.04997244104743004, 0.05306137725710869, -0.02500508911907673, 0.06859874725341797, 0.20712611079216003, 0.029449855908751488, -0.036079827696084976, -0.03478198125958443, -0.08665621280670166, -0.04115987569093704, -0.033841319382190704, -0.025649873539805412, 0.04066025838255882, 0.15449358522891998, -0.027549782767891884, -0.054514024406671524, 0.22068744897842407, 0.22581256926059723, -0.07797663658857346, 0.2676489055156708, -0.008688285946846008, 0.11675282567739487, -0.020496666431427002, 0.08204580098390579, 0.10009635239839554, 0.042806465178728104, 0.045469485223293304, 0.01640567183494568, -0.06413494050502777, -0.01679152436554432, -0.016583865508437157, -0.10257916152477264, 0.03813624009490013, 0.06612435728311539, 0.07105329632759094, 0.03829551115632057, 0.009484436362981796, 0.015429089777171612, -0.05226889252662659, -0.08062806725502014, -0.15435363352298737, -0.013648776337504387, 0.06784634292125702, 0.17159560322761536, -0.04481020197272301, 0.13471324741840363, 0.008849669247865677, -0.04810478910803795, -0.11814679950475693, 0.024495558813214302, 0.14474527537822723, -0.0054968190379440784, 0.012635056860744953, 0.027625463902950287, 0.1463417112827301, -0.024187901988625526, -0.07902912050485611, 0.09393037855625153, -0.1731010526418686, -0.016235381364822388, 0.021538373082876205, 0.038149911910295486, -0.14606724679470062, -0.0423012375831604, 0.029270021244883537, 0.07909554243087769, 0.08998120576143265, -0.06530717015266418, -0.20759037137031555, 0.09073770046234131, 0.032876722514629364, 0.02856958843767643, -0.014988665468990803, -0.07081185281276703, 0.012878920882940292, -0.26437243819236755, 0.14110685884952545, 0.022052090615034103, -0.03585179150104523, 0.0479874424636364, -0.02084038034081459, 0.025761736556887627, 0.1526464968919754, 0.026405585929751396, -0.12263045459985733, -0.05695073679089546, 0.01142063643783331, 0.05736628547310829, -0.0797182098031044, 0.0265258327126503, 0.06434046477079391, 0.15919986367225647, 0.1765521615743637, -0.1333245486021042, -0.058531083166599274, 0.08043082058429718, 0.1295943707227707, 0.03372078016400337, 0.02177124284207821, 0.05863809585571289, -0.06823763996362686, -0.1013573631644249, -0.033459726721048355, 0.2287401258945465, 0.0382518470287323, 0.011227325536310673, -0.02820647694170475, 0.16058167815208435, -7.657315109099727e-06, -0.021816885098814964, -0.04502537101507187, -0.0006942423060536385, 0.015611210837960243, -0.057326771318912506, -0.10309083014726639, 0.00486335251480341, -0.1383046805858612, -0.004332341719418764, 0.009022898972034454, -0.08702202886343002, -0.09605562686920166, -0.08514726161956787, 0.07538657635450363, -0.06260949373245239, 0.15075762569904327, -0.02956213615834713, 0.0364171639084816, 0.09991002082824707, 0.032246414572000504, 0.0016378333093598485, 0.057416271418333054, 0.06244295835494995, -0.04732070863246918, -0.0067373961210250854, -0.04677819088101387, 0.11969933658838272, 0.009467451833188534, 0.019038019701838493, 0.03665942698717117, 0.13573336601257324, -0.007106538396328688, -0.021200789138674736, -0.07172392308712006, 0.03633658587932587, 0.01934475637972355, 0.1353844553232193, 0.10461607575416565, 0.02636650763452053, 0.11002861708402634, -0.037993818521499634, 0.07810099422931671, -0.011076601222157478, 0.11733290553092957, -0.02289452776312828, 0.07374574989080429, -0.07310302555561066, -0.04320092871785164, -0.19526028633117676, -0.0465378612279892, 0.10867749899625778, 0.09754310548305511, -0.01538920309394598, 0.15660683810710907, 0.05398182570934296, 0.04701598733663559, 0.0456421822309494, -0.019873877987265587, -0.03918437659740448, 0.07425248622894287, 0.1603316366672516, 0.01590469293296337, 0.06828711181879044, 0.15200819075107574, 0.006362074986100197, 0.01840081252157688, -0.0730685293674469, -0.04625612124800682, -0.04193446785211563, -0.20678365230560303, 0.09894067794084549, 0.08367040008306503, -0.030904198065400124, 0.140226811170578, 0.1318584680557251, -0.06445642560720444, -0.018321789801120758, -0.19707268476486206, -0.12463754415512085, -0.16297343373298645, -0.18297569453716278, -0.0152740478515625, 0.17545652389526367, 0.01997726783156395, -0.15050376951694489, 0.019798045977950096, 0.09635468572378159, 0.001883623655885458, 0.11503852158784866, 0.054853059351444244, -0.05271976441144943, -0.15419328212738037, 0.15338943898677826, -0.08938073366880417, -0.012191087007522583, 0.07636697590351105, -0.10748761892318726, -0.022378843277692795, 0.009541815146803856, -0.06812331080436707, 0.08315260708332062, 0.003384857438504696, 0.261743426322937, 0.10833457857370377, 0.012726591899991035, -0.010898208245635033, -0.02356501668691635, -0.034468717873096466, 0.045595474541187286, 0.11754743754863739, 0.1384856104850769, -0.07221616804599762, 0.0662418082356453, -0.016537830233573914, -0.07296023517847061, -0.01870729774236679, -0.13115979731082916, 0.11628242582082748, 0.030158769339323044, 0.11605408787727356, -0.043685831129550934, 0.07332844287157059, 0.19383975863456726, -0.07376828044652939, 0.04384038224816322, -0.09715400636196136, 0.08479366451501846, 0.03227148950099945, -0.11248074471950531, 0.18413695693016052, -0.13862428069114685, -0.021577943116426468, 0.19623368978500366, -0.0628746896982193, 0.00808109063655138, 0.15397562086582184, 0.01891198754310608], "kernel": [[-0.005237859673798084, 0.010049338452517986, -0.07869315892457962, -0.21942603588104248, -0.30089306831359863, -0.254680871963501, -0.056570231914520264, 0.029002314433455467, -0.05327419191598892, -0.11185172945261002, 0.07076697796583176, -0.09980764985084534, 0.13577979803085327, 0.007752048317342997, -0.1201108992099762, 0.06497249007225037, -0.0401122085750103, -0.26860061287879944, 0.162532776594162, -0.0806322693824768, 0.3353565037250519, 0.06268742680549622, 0.18707282841205597, -0.10585979372262955, 0.061365824192762375, -0.12150807678699493, -0.15403419733047485, -0.29529744386672974, 0.057005591690540314, 0.4616891145706177, 0.09146364778280258, 0.008262340910732746, -0.030048765242099762, -0.24530304968357086, 0.14482265710830688, 0.1170392781496048, -0.02418017014861107, -0.1661728173494339, 0.10083683580160141, 0.14453770220279694, 0.23191294074058533, -0.3810543715953827, 0.15152955055236816, 0.31552961468696594, -0.10769277065992355, 0.2686062157154083, -0.46424371004104614, -0.11909367144107819, -0.03279566392302513, -0.16428525745868683, 0.20596151053905487, -0.07385825365781784, 0.07747762650251389, 0.2264743149280548, 0.1525343358516693, 0.20538634061813354, -0.1746276468038559, 0.14191597700119019, -0.004737203009426594, -0.10980052500963211, 0.18159639835357666, -0.05224442481994629, 0.026672955602407455, -0.12367696315050125, 0.2883901596069336, -0.042477212846279144, -0.21733388304710388, 0.11180166155099869, -0.0007175994687713683, 0.1010805293917656, -0.026759829372167587, 0.057536400854587555, -0.07704323530197144, 0.024312330409884453, 0.04756372794508934, 0.29059863090515137, 0.05676493048667908, -0.2302597016096115, 0.27830585837364197, 0.03453901410102844, 0.0339043065905571, -0.05031008645892143, -0.019798804074525833, -0.11948567628860474, -0.36522969603538513, 0.06467187404632568, 0.22232846915721893, -0.07677413523197174, 0.3204357922077179, -0.08905377238988876, 0.36662018299102783, -0.1498030722141266, -0.015979524701833725, -0.2645733058452606, 0.2601870596408844, 0.11082808673381805, -0.05728095769882202, 0.06693635880947113, -0.19730783998966217, 0.1471915990114212, 0.1872551590204239, -0.00429524714127183, 0.027003129944205284, -0.1839675009250641, 0.2729814946651459, 0.14933225512504578, -0.07928397506475449, -0.10051242262125015, -0.12797735631465912, -0.002228665864095092, 0.09005682170391083, -0.0941467210650444, 0.024569734930992126, 0.06388168781995773, 0.10198356211185455, -0.01880880631506443, -0.15847313404083252, 0.09426264464855194, -0.0674307718873024, -0.1780245453119278, -0.06314495950937271, 0.0017850932199507952, 0.03612333536148071, -0.2605365216732025, 0.23023349046707153, -0.06367997080087662, -0.026167919859290123, -0.20296992361545563, -0.20461218059062958, 0.20665684342384338, -0.16623103618621826, -0.14004240930080414, 0.22894299030303955, 0.159367635846138, -0.11930825561285019, -0.16760875284671783, 0.2298702597618103, -0.0034844866022467613, -0.009600764140486717, 0.10488453507423401, -0.18224848806858063, 0.05624479427933693, 0.02785388007760048, 0.19274967908859253, 0.058919839560985565, 0.005947576370090246, 0.12385827302932739, -0.26463761925697327, -0.09451957046985626, -0.09669732302427292, 0.08988447487354279, 0.2771158218383789, 0.0048288628458976746, -0.22641491889953613, -0.2058580219745636, 0.09234220534563065, -0.05282043293118477, 0.027946170419454575, 0.18739981949329376, 0.12308106571435928, -0.018129583448171616, 0.08441222459077835, 0.1778571754693985, 0.13572083413600922, -0.13473477959632874, 0.1025683805346489, 0.026220424100756645, -0.07973189651966095, 0.025825435295701027, 0.10321623086929321, 0.0776616558432579, -0.09999988973140717, 0.10967207700014114, 0.0671161562204361, -0.018375610932707787, -0.396942138671875, 0.15648609399795532, -0.09643517434597015, 0.11572776734828949, -0.1906658113002777, 0.14525315165519714, 0.048943620175123215, 0.3969055414199829, 0.016133388504385948, -0.06740374118089676, 0.05276551842689514, -0.14571325480937958, 0.07240016758441925, 0.20906485617160797, 0.08470964431762695, -0.11259153485298157, -0.21909216046333313, 0.19762030243873596, -0.039310015738010406, -0.011626644060015678, -0.08690345287322998, 0.2967032194137573, -0.031815290451049805, 0.10524294525384903, 0.17905059456825256, -0.10130774974822998, 0.05596921592950821, -0.20013058185577393, -0.14859984815120697, -0.014851545915007591, 0.058029089123010635, 0.16997011005878448, 0.0022847536019980907, -0.1606757640838623, 0.14636379480361938, -0.014063137583434582, -0.07595755904912949, -0.01209387369453907, -0.1535617709159851, 0.008301288820803165, -0.12063419818878174, -0.24750873446464539, 0.24510912597179413, 0.20624656975269318, 0.2822801470756531, 0.09625948220491409, -0.2847006022930145, -0.05242624506354332, 0.2041112780570984, 0.07510212808847427, -0.05384169518947601, 0.20606179535388947, 0.038739778101444244, 0.03462786599993706, -0.09425211697816849, 0.1377287358045578, -0.04031778499484062, 0.16055873036384583, 0.284132719039917, 0.1447295993566513, -0.12184178829193115, 0.09662279486656189, 0.027850916609168053, -0.29583486914634705, 0.04671941697597504, 0.0604216530919075, -0.32310134172439575, 0.04670354351401329, 0.21159374713897705, 0.18206669390201569, -0.23014359176158905, -0.27002495527267456, -0.0053942142985761166, -0.2314823567867279, 0.007604557555168867, -0.2800551950931549, -0.245120570063591, -0.18181513249874115, -0.11347606778144836, -0.20511123538017273, 0.17232249677181244], [-0.07317367941141129, -0.08837068825960159, -0.013260160572826862, -0.012033630162477493, 0.20103618502616882, 0.19064363837242126, -0.038736097514629364, 0.019442442804574966, 0.40481919050216675, 0.029577942565083504, -0.30407455563545227, 0.1249963566660881, 0.10350195318460464, 0.3100990355014801, -0.04161172732710838, 0.018856121227145195, -0.1353837549686432, 0.46895161271095276, 0.18550685048103333, 0.09904545545578003, -0.0154469208791852, -0.14956605434417725, 0.1359553188085556, -0.055635739117860794, -0.23310363292694092, -0.3620333671569824, -0.20938152074813843, -0.35589051246643066, -0.3073202073574066, 0.03536663576960564, -0.19357530772686005, 0.010542651638388634, -0.35681477189064026, 0.34318962693214417, 0.3386083245277405, 0.10880081355571747, -0.021810781210660934, 0.18386580049991608, 0.1823825091123581, 0.12511882185935974, -0.5917491912841797, 0.061615921556949615, -0.22912320494651794, -0.026745779439806938, -0.3557148277759552, -0.40719354152679443, 0.46812164783477783, -0.13436788320541382, 0.22600510716438293, -0.04897493124008179, 0.2957567274570465, -0.1826506108045578, 0.23344165086746216, 0.401742160320282, 0.2528209984302521, 0.43778496980667114, 0.0429353266954422, 0.13336116075515747, -0.14404629170894623, 0.11564546823501587, -0.25566521286964417, -0.20014642179012299, -0.07448563724756241, -0.33497506380081177, 0.21308551728725433, 0.47808218002319336, -0.379433810710907, 0.04073966294527054, -0.31249451637268066, 0.463566392660141, 0.10998675972223282, -0.16253145039081573, -0.026862606406211853, -0.33672675490379333, 0.32651597261428833, -0.25258398056030273, 0.1960878223180771, -0.7136152982711792, -0.2568281590938568, 0.11015916615724564, 0.09177643805742264, -0.11605064570903778, 0.07848076522350311, -0.1743888556957245, 0.15540987253189087, -0.41184502840042114, -0.07649943977594376, 0.06555991619825363, 0.07148459553718567, -0.09525946527719498, -0.0409901887178421, -0.4004923701286316, 0.03185604140162468, -0.04216237738728523, -0.10730388760566711, -0.22893942892551422, -0.03179200738668442, 0.11154281347990036, -0.24128900468349457, -0.5223993062973022, 0.23209898173809052, 0.23685507476329803, -0.06277758628129959, 0.34601667523384094, 0.13539832830429077, -0.1414768546819687, 0.003567370818927884, 0.27844443917274475, -0.3157813847064972, 0.11192399263381958, -0.21332554519176483, 0.23611705005168915, -0.33285269141197205, 0.24606820940971375, -0.3311946988105774, 0.25157955288887024, -0.2794437110424042, -0.2382909655570984, -0.35953590273857117, 0.21839474141597748, 0.06206668168306351, -0.26216694712638855, -0.15238095819950104, -0.0640111044049263, 0.6242131590843201, -0.14163576066493988, -0.28777018189430237, 0.20760288834571838, -0.3766791522502899, -0.5600085854530334, -0.2937268316745758, 0.1640424132347107, -0.07169376313686371, -0.13212262094020844, 0.2169419825077057, 0.14317801594734192, -0.4903264045715332, -0.3547278046607971, 0.5727890133857727, -0.13212329149246216, -0.3028032183647156, 0.07810959964990616, 0.33849215507507324, 0.46367353200912476, -0.5050541162490845, -0.05920528247952461, -0.08115389943122864, 0.12286986410617828, 0.1295594871044159, -0.5168473124504089, 0.3147892653942108, -0.2869555652141571, -0.047200921922922134, 0.2704535126686096, -0.03899736702442169, -0.32953745126724243, -0.11245772242546082, 0.48723867535591125, 0.05617886781692505, -0.02813771925866604, -0.3942972719669342, 0.09888947010040283, -0.49877846240997314, 0.3275033235549927, 0.11414074152708054, 0.08303792774677277, -0.4028620719909668, -0.16675607860088348, 0.21972152590751648, 0.5208859443664551, 0.6695404648780823, 0.050916366279125214, 0.5560725331306458, -0.01523915957659483, 0.11243133246898651, 0.05448723956942558, -0.16113732755184174, -0.42297831177711487, -0.2050490379333496, 0.03502951189875603, 0.010875165462493896, 0.19780150055885315, 0.31321263313293457, 0.0016823852201923728, 0.18912599980831146, 0.040282730013132095, 0.019325414672493935, -0.22253665328025818, -0.38001954555511475, -0.23110421001911163, 0.048745300620794296, 0.38176053762435913, -0.035337235778570175, 0.45664089918136597, -0.0591588094830513, 0.11998641490936279, -0.15151052176952362, -0.3300686180591583, -0.060242488980293274, -0.07277442514896393, -0.4769623279571533, -0.1317911148071289, -0.04363619536161423, 0.14511153101921082, 0.3724815845489502, 0.515967071056366, 0.0677192211151123, -0.4689200222492218, 0.31367751955986023, -0.18278217315673828, -0.05049706995487213, 0.12879948318004608, -0.017316799610853195, 0.04096195101737976, 0.3124334216117859, -0.03295134752988815, 0.1549590528011322, -0.17698876559734344, -0.8203443884849548, 0.16550013422966003, 0.45949020981788635, 0.32847219705581665, 0.4270297884941101, 0.12662021815776825, 0.48693403601646423, 0.06764328479766846, 0.5015602111816406, -0.0556628592312336, 0.05632713437080383, 0.10995574295520782, 0.1367013156414032, 0.03942139446735382, 0.24851132929325104, 0.11412420868873596, 0.05236310139298439, 0.12583708763122559, 0.0007990996236912906, 0.20724691450595856, 0.2665770947933197, 0.017020422965288162, -0.4637826085090637, 0.42738068103790283, 0.16931438446044922, -0.10404963046312332, -0.09623647481203079, -0.13728557527065277, -0.04377688094973564, 0.1924135386943817, 0.1502019315958023, -0.21801981329917908, 0.2939859926700592, 0.3339249789714813, 0.22958362102508545, 0.25652405619621277, -0.13630466163158417, -0.46114104986190796], [0.3954334557056427, 0.10201442986726761, -0.29992836713790894, 0.3224233388900757, -0.038484469056129456, 0.13746662437915802, -0.24627083539962769, 0.3232310116291046, 0.015065008774399757, -0.1083398088812828, 0.1361846774816513, -0.10277802497148514, 0.1807381510734558, -0.0025261854752898216, 0.5085967183113098, -0.1553007960319519, 0.4471486806869507, 0.3734506368637085, 0.002113502938300371, 0.30479761958122253, -0.0997077003121376, 0.20651184022426605, -0.3434426486492157, 0.20736870169639587, -0.029200443997979164, -0.050172705203294754, 0.15229299664497375, 0.15249668061733246, -0.06788956373929977, -0.21880842745304108, -0.4453567862510681, 0.01112370751798153, -0.20162466168403625, -0.42300868034362793, -0.03252432122826576, -0.10034509748220444, -0.19798777997493744, 0.16554224491119385, 0.08333145827054977, 0.4902915358543396, -0.6829268932342529, 0.12185900658369064, -0.0737534761428833, -0.23845653235912323, -0.07145761698484421, -0.3655468821525574, -0.1817520558834076, -0.4242312014102936, 0.21924029290676117, 0.07212840765714645, 0.09852753579616547, 0.2902306020259857, -0.33938923478126526, -0.23133793473243713, 0.06582950055599213, 0.4678223133087158, 0.013968350365757942, -0.14410321414470673, -0.04781533032655716, 0.258378803730011, -0.2243875116109848, -0.03539389371871948, -0.27300113439559937, -0.2977100610733032, -0.017350997775793076, 0.5473914742469788, 0.041881315410137177, -0.07604524493217468, -0.3944531977176666, 0.08415701240301132, 0.05719003826379776, 0.007932157255709171, -0.36034339666366577, -0.2514243423938751, 0.17654453217983246, -0.013031795620918274, -0.1969311684370041, 0.4498283863067627, -0.30438774824142456, -0.04639047756791115, 0.12274259328842163, -0.05373759567737579, -0.17027974128723145, 0.03403080627322197, 0.08266682177782059, -0.3033348619937897, -0.2592443823814392, -0.3552532494068146, -0.0346277691423893, -0.03811992332339287, -0.18692390620708466, -0.5438013076782227, 0.08295852690935135, -0.07951279729604721, 0.09089277684688568, 0.1520419716835022, 0.09650812298059464, 0.04783034697175026, -0.07006624341011047, -0.1333969682455063, 0.282882422208786, -0.1173931136727333, -0.26215094327926636, 0.29530370235443115, 0.027078069746494293, 0.08867748826742172, 0.24777169525623322, 0.05997959524393082, -0.028365833684802055, -0.06728970259428024, 0.2840121388435364, 0.20113125443458557, 0.09203602373600006, 0.08885152637958527, -0.3149816393852234, -0.1794004738330841, 0.04880862683057785, 0.28482159972190857, -0.05745387449860573, -0.16999244689941406, 0.29450783133506775, -0.15139688551425934, 0.10173016786575317, -0.29296958446502686, 0.18757249414920807, -0.1773086041212082, 0.657455325126648, -0.0169167872518301, -0.03539633750915527, -0.028666073456406593, -0.5905691385269165, -0.1327044665813446, -0.291614830493927, -0.23395706713199615, -0.20822612941265106, -0.053251467645168304, -0.4014950692653656, -0.26143571734428406, -0.08752214163541794, -0.3501003086566925, 0.08521699160337448, -0.025110092014074326, 0.2544861137866974, -0.24540022015571594, -0.08303030580282211, -0.0034006463829427958, -0.11192597448825836, 0.3159928321838379, 0.12750276923179626, 0.20267631113529205, 0.035841941833496094, -0.07989511638879776, -0.07428649067878723, 0.28041476011276245, 0.2736138701438904, -0.21858292818069458, 0.050921134650707245, 0.5045649409294128, 0.0766059160232544, -0.2877160906791687, 0.07492940872907639, 0.06397363543510437, -0.021175412461161613, -0.4119860529899597, -0.18522749841213226, 0.21858394145965576, -0.329125314950943, 0.1659223437309265, -0.18881236016750336, 0.12322157621383667, 0.12630996108055115, 0.4515019953250885, 0.1527073085308075, 0.13560090959072113, 0.3727191090583801, -0.008523971773684025, -0.35420793294906616, -0.42840948700904846, 0.1466836780309677, -0.18935494124889374, 0.26024991273880005, 0.13386636972427368, 0.30867329239845276, 0.48961141705513, 0.36025750637054443, 0.21462734043598175, 0.47580963373184204, 0.16866065561771393, -0.3026476502418518, 0.19081346690654755, -0.3149358928203583, -0.06931746006011963, 0.3585811257362366, -0.05164942517876625, 0.3227009177207947, 0.01760786958038807, 0.19061200320720673, -0.3929885923862457, 0.05851650983095169, -0.09351042658090591, -0.12754373252391815, -0.12914864718914032, 0.284715861082077, 0.03200646489858627, -0.1746673732995987, 0.21784767508506775, 0.6977910995483398, 0.49193960428237915, -0.24534772336483002, 0.06665807217359543, 0.040658287703990936, -0.3410753309726715, -0.04748709127306938, 0.155782550573349, 0.08128639310598373, -0.09031735360622406, 0.3601951599121094, -0.14529915153980255, -0.30035272240638733, -0.09866458177566528, -0.05458375811576843, 0.1753414422273636, 0.10110844671726227, -0.09392666071653366, 0.4265548586845398, 0.33049046993255615, 0.16709943115711212, -0.33483240008354187, 0.025553904473781586, -0.12136176228523254, -0.010671693831682205, -0.16434615850448608, 0.015639416873455048, 0.17610257863998413, 0.1380632370710373, -0.05256873741745949, 0.06594838201999664, -0.006795729044824839, 0.11405868828296661, -0.389385849237442, -0.1524682641029358, 0.4937390089035034, 0.2093587964773178, -0.06494282931089401, -0.3912501633167267, 0.16918933391571045, 0.12917758524417877, -0.24387723207473755, 0.3431914150714874, -0.19656455516815186, 0.42486220598220825, -0.11732693761587143, 0.02449004352092743, 0.05821169167757034, -0.20095637440681458, -0.14298877120018005], [0.015899384394288063, 0.3218667209148407, -0.21907302737236023, 0.09724411368370056, 0.35175496339797974, 0.07993417978286743, -0.024104980751872063, 0.16209156811237335, 0.11547660827636719, 0.07304932922124863, -0.07179449498653412, 0.07694754749536514, 0.5046949982643127, 0.22456586360931396, 0.27664893865585327, 0.1263122856616974, -0.03508796542882919, 0.0058876401744782925, -0.41763177514076233, -0.15873748064041138, -0.21944598853588104, -0.18173353374004364, 0.018173115327954292, 0.012166662141680717, -0.2764971852302551, 0.13383445143699646, 0.18385188281536102, 0.40702706575393677, -0.23477694392204285, 0.12332332134246826, -0.13679464161396027, 0.10755518078804016, -0.03505625203251839, -0.2466192990541458, -0.044879525899887085, -0.15986181795597076, -0.025474170222878456, -0.17049017548561096, 0.21203577518463135, 0.09250545501708984, -0.1138622984290123, -0.24063214659690857, -0.3204614818096161, -0.024384967982769012, -0.12014744430780411, -0.33759117126464844, 0.18589377403259277, 0.17469702661037445, 0.0025802250020205975, -0.14923393726348877, 0.1335107833147049, 0.1426730901002884, -0.2569572329521179, 0.4107484221458435, 0.06673870235681534, -0.08308244496583939, 0.1865934431552887, -0.036983538419008255, 0.13896740972995758, -0.5732918977737427, -0.05761447921395302, 0.13692276179790497, -0.03324800729751587, 0.04918232560157776, 0.08497188985347748, 0.0031056052539497614, -0.3554517328739166, 0.14784368872642517, 0.17335034906864166, 0.43124017119407654, 0.39212512969970703, -0.35353758931159973, 0.08455037325620651, -0.13461507856845856, -0.14431817829608917, -0.08434800803661346, -0.04826940968632698, -0.34723609685897827, 0.3244592845439911, -0.0654626190662384, 0.0938219279050827, -0.2605595886707306, 0.37510451674461365, -0.09441689401865005, -0.10116957873106003, 0.28559768199920654, -0.0500754714012146, 0.22172018885612488, -0.2880297303199768, -0.04194003716111183, -0.26766979694366455, 0.06724175065755844, 0.10116604715585709, -0.12268488854169846, 0.23746336996555328, -0.46786704659461975, 0.20448097586631775, -0.29598531126976013, -0.24359555542469025, 0.198839470744133, -0.4654306471347809, -0.06386048346757889, -0.21281708776950836, 0.3406198024749756, -0.3060922622680664, -0.2752659022808075, 0.13763993978500366, -0.22742816805839539, 0.017676593735814095, 0.07653842121362686, -0.5186630487442017, 0.1264810562133789, -0.13719722628593445, 0.07877299934625626, -0.2874642312526703, -0.1213851124048233, 0.004832381382584572, -0.3177134096622467, -0.00876111164689064, -0.022898243740200996, 0.08484712243080139, -0.011444599367678165, 0.10269244760274887, 0.2999441921710968, -0.17528091371059418, 0.06579805165529251, -0.31188467144966125, -0.1595231294631958, 0.557934582233429, 0.019554538652300835, 0.12836556136608124, -0.32968512177467346, 0.2590002119541168, -0.11856669932603836, 0.09747327864170074, 0.06285981088876724, 0.07012884318828583, 0.2274782955646515, 0.3048045337200165, 0.3963456153869629, -0.05263041704893112, 0.08318373560905457, -0.04355079308152199, 0.28160110116004944, -0.13453418016433716, 0.08926160633563995, -0.006782202050089836, -0.04165447875857353, -0.1577521413564682, 0.029994873329997063, -0.09543068706989288, 0.2317076474428177, 0.44941672682762146, -0.11266706138849258, 0.3630441725254059, -0.18062104284763336, 0.06420425325632095, 0.0839829072356224, -0.017597505822777748, 0.12631475925445557, -0.5532598495483398, -0.20566852390766144, -0.31770822405815125, -0.19277937710285187, -0.11060550808906555, -0.2798216938972473, 0.0942896381020546, 0.06265590339899063, -0.030535642057657242, 0.17841078341007233, -0.14016251266002655, -0.3689647912979126, 0.2828451991081238, -0.07456903904676437, -0.16754131019115448, -0.06578154116868973, -0.010316255502402782, 0.20453278720378876, -0.011740709654986858, -0.24424126744270325, -0.08137501776218414, 0.5455898642539978, -0.17299054563045502, 0.09239059686660767, 0.23731546103954315, 0.16871006786823273, 0.054667919874191284, -0.1508510857820511, 0.3156357407569885, -0.33133164048194885, 0.3649580478668213, 0.06833361834287643, -0.23652799427509308, 0.22233846783638, -0.18529069423675537, -0.10763794183731079, -0.288716197013855, -0.14717024564743042, 0.11989478021860123, -0.09827984124422073, 0.19619235396385193, 0.0053168232552707195, -0.3593764901161194, -0.18816719949245453, -0.0026329399552196264, -0.1333111971616745, -0.3582882583141327, -0.16095232963562012, -0.0883808359503746, 0.18767313659191132, -0.14903490245342255, 0.1501980423927307, -0.0849565863609314, -0.0427122488617897, 0.06297686696052551, 0.37370461225509644, 0.05371500179171562, 0.3239787220954895, 0.11286365985870361, 0.16408804059028625, 0.03455454111099243, 0.3590714931488037, 0.39915433526039124, -0.20531341433525085, -0.10061462223529816, -0.377543181180954, 0.47305384278297424, 0.2697521448135376, 0.19290554523468018, -0.30483192205429077, 0.08867868036031723, -0.10219801962375641, 0.17477267980575562, -0.22184917330741882, 0.0701017901301384, -0.05535878241062164, -0.11733663082122803, 0.43914875388145447, 0.0870034247636795, 0.22685877978801727, 0.10017703473567963, 0.03785889595746994, -0.004263116512447596, -0.36791467666625977, 0.12109208852052689, 0.23222875595092773, -0.04442654177546501, -0.2053810954093933, -0.13874027132987976, 0.3588056266307831, 0.09955894947052002, -0.185324564576149, 0.3181317448616028, -0.014336016960442066, 0.13534890115261078, -0.5369278192520142], [-0.11508004367351532, -0.14858105778694153, 0.07732968032360077, -0.4232320487499237, -0.06384632736444473, -0.2291090339422226, 0.3093595802783966, 0.06536687165498734, 0.009845449589192867, 0.03754303604364395, -0.32604503631591797, -0.09601148962974548, 0.3831106126308441, -0.18829600512981415, -0.24689871072769165, -0.13494133949279785, 0.01939411461353302, 0.04479041323065758, -0.004157236311584711, -0.16480295360088348, 0.2004460096359253, 0.0887463316321373, 0.24552017450332642, -0.6306098699569702, 0.3725520074367523, 0.3579932451248169, -0.18110258877277374, -0.4303767681121826, -0.011343048885464668, -0.12123242765665054, -0.2644052803516388, 0.01559600979089737, -0.10008760541677475, -0.11739441752433777, -0.0923372283577919, -0.036490797996520996, -0.1726454198360443, 0.13468067348003387, 0.0552411824464798, -0.17415420711040497, 0.413886696100235, 0.21646176278591156, -0.01187167689204216, 0.11666783690452576, -0.10841100662946701, 0.41507506370544434, -0.06506044417619705, 0.15616296231746674, -0.20840974152088165, -0.40725523233413696, -0.030938904732465744, -0.0462372750043869, -0.003665416268631816, 0.12617947161197662, -0.23445068299770355, 0.10838921368122101, -0.09961123764514923, 0.2337310016155243, 0.10096238553524017, -0.4088495075702667, 0.24288560450077057, 0.22577325999736786, 0.03421354293823242, 0.2775627672672272, -0.10382887721061707, -0.19021138548851013, 0.2999718487262726, 0.02282649278640747, -0.08179245889186859, -0.013082503341138363, 0.03895190358161926, -0.042456939816474915, -0.06232980638742447, 0.01700088009238243, 0.20763657987117767, -0.24174140393733978, -0.31385090947151184, 0.03882446512579918, -0.09236445277929306, -0.17419201135635376, -0.326949805021286, 0.025127848610281944, 0.2552170753479004, -0.23003382980823517, 0.07217913120985031, -0.2805183231830597, -0.11702468246221542, 0.08720026910305023, 0.004139947239309549, 0.11096767336130142, 0.22332845628261566, -0.007872036658227444, 0.051132600754499435, -0.25013267993927, 0.005613785702735186, 0.09578433632850647, -0.3010154664516449, -0.11360706388950348, 0.024011893197894096, -0.3968361020088196, -0.06608974933624268, -0.2163565307855606, -0.15611323714256287, -0.23045013844966888, 0.13019254803657532, 0.0932542160153389, 0.3261294662952423, 0.07408736646175385, 0.06275147199630737, -0.033384181559085846, 0.07461955398321152, -0.15551546216011047, -0.14835861325263977, 0.11583013087511063, -0.1573895514011383, -0.022488372400403023, 0.06796518713235855, 0.23541368544101715, 0.23800551891326904, 0.19302639365196228, 0.07221116125583649, -0.13320781290531158, 0.23648223280906677, 0.027799293398857117, 0.02272828295826912, 0.0036407725419849157, 0.1904451549053192, 0.07565927505493164, -0.2296452671289444, -0.2228376418352127, -0.09791713953018188, -0.062070902436971664, 0.4156644642353058, -0.09393813461065292, 0.1544642299413681, 0.04896603152155876, 0.26920822262763977, 0.11691854894161224, -0.14061982929706573, 0.31773918867111206, 0.07123717665672302, -0.1378130167722702, -0.05387328192591667, 0.019432874396443367, 0.2206943780183792, 0.07335156947374344, -0.2939856946468353, -0.08010205626487732, -0.3347349166870117, -0.08268409222364426, -0.2584381103515625, 0.03815849870443344, -0.12560030817985535, 0.15752273797988892, -0.20483693480491638, 0.15664677321910858, -0.22791065275669098, -0.09578681737184525, 0.14425911009311676, -0.0999436005949974, -0.09939239174127579, -0.28707244992256165, -0.23937281966209412, -0.1223401203751564, 0.026420600712299347, 0.02150672860443592, -0.06005304306745529, 0.1948442906141281, -0.26454874873161316, -0.07671496272087097, 0.28308454155921936, -0.08289770781993866, -0.08038916438817978, 0.03931429982185364, -0.00927289854735136, 0.1138274297118187, -0.074796661734581, 0.048712391406297684, 0.08449500054121017, 0.13240940868854523, -0.2778439521789551, -0.12254895269870758, 0.22542816400527954, 0.10729236900806427, 0.1730041652917862, 0.02026362530887127, -0.27021723985671997, 0.0707610473036766, 0.198187917470932, 0.08376812934875488, -0.011071360670030117, 0.2025279551744461, -0.18424855172634125, -0.15832506120204926, 0.15321454405784607, -0.149686798453331, 0.09655652195215225, 0.08351364731788635, -0.28373628854751587, -0.16244222223758698, 0.07940991222858429, -0.12602007389068604, 0.142654687166214, 0.029746558517217636, 0.16217941045761108, -0.3797389268875122, -0.03729541227221489, 0.007701511029154062, -0.02865813858807087, -0.085218645632267, -0.35869261622428894, -0.20383454859256744, -0.12208037078380585, 0.025772476568818092, 0.3114698827266693, 0.13024884462356567, -0.12602445483207703, -0.2629266679286957, 0.4367600083351135, -0.02911730669438839, -0.17638421058654785, -0.10842283815145493, 0.32699164748191833, 0.3238104581832886, 0.03521115332841873, 0.1886584460735321, -0.10776776075363159, -0.014577231369912624, -0.0049160923808813095, 0.3551529049873352, -0.07738732546567917, 0.16772355139255524, 0.008437016978859901, 0.0139932157471776, -0.02410704642534256, -0.4155499339103699, -0.1671299785375595, 0.3847464323043823, -0.17939510941505432, 0.05164358392357826, -0.021563690155744553, -0.012506593950092793, 0.08103179186582565, -0.18832029402256012, 0.09792925417423248, 0.20279353857040405, 0.4369814395904541, 0.22271184623241425, 0.13669829070568085, -0.0204250980168581, -0.09230340272188187, -0.25370344519615173, 0.07593139261007309, 0.2135121077299118, -0.39550289511680603, 0.22993062436580658], [0.1816420555114746, 0.06613274663686752, 0.05282910540699959, 0.11713195592164993, 0.029405198991298676, 0.10208193212747574, 0.29360175132751465, -0.17396576702594757, -0.11413724720478058, 0.20025944709777832, 0.2823493182659149, 0.14145506918430328, -0.01043749414384365, -0.21661953628063202, -0.024291453883051872, -0.03161215782165527, 0.20306196808815002, 0.059944961220026016, -0.07518686354160309, 0.03379160165786743, -0.08993696421384811, 0.34995248913764954, 0.0526316799223423, -0.3400966227054596, -0.21393032371997833, 0.052697017788887024, -0.10064641386270523, 0.17847058176994324, -0.24937963485717773, -0.25552132725715637, -0.15707357227802277, 0.1318741738796234, -0.002314183162525296, 0.06528656929731369, 0.05316400155425072, -0.07751926779747009, 0.06014256551861763, -0.4155386686325073, 0.10604067146778107, -0.22901833057403564, 0.5090876221656799, 0.1741921305656433, 0.27635908126831055, 0.1932758390903473, -0.036067597568035126, 0.38684701919555664, 0.23309548199176788, -0.19327493011951447, 0.15223203599452972, 0.16018147766590118, -0.431925505399704, -0.3357146978378296, 0.1805117130279541, 0.09964067488908768, 0.010752311907708645, -0.0918140634894371, 0.3118479251861572, -0.10612554848194122, -0.32520145177841187, 0.2715005874633789, 0.39491233229637146, -0.1108253076672554, -0.13413289189338684, -0.3254453241825104, -0.24688000977039337, -0.2763030529022217, -0.07865029573440552, -0.5816817879676819, 0.16875644028186798, -0.12618981301784515, -0.3764026463031769, 0.030676953494548798, 0.5164867639541626, -0.32380086183547974, -0.15969178080558777, 0.16773319244384766, 0.3186849355697632, 0.07136844098567963, -0.1443195939064026, 0.4725959300994873, -0.06709105521440506, 0.011922984384000301, 0.008679896593093872, 0.4905911684036255, -0.02421622909605503, -0.3129420280456543, -0.20242267847061157, 0.21116819977760315, 0.032100874930620193, -0.39475610852241516, 0.08709848672151566, 0.011913579888641834, 0.066249318420887, -0.2813447415828705, 0.3074449896812439, 0.3589414954185486, 0.15037111937999725, -0.1796071082353592, -0.03380578011274338, -0.5084136724472046, 0.15478099882602692, 0.1215665265917778, -0.18559329211711884, -0.03397063910961151, -0.3429233431816101, -0.23471273481845856, 0.24650511145591736, 0.3401561975479126, 0.23470349609851837, -0.05507577210664749, -0.018556231632828712, -0.18228104710578918, -0.41442301869392395, -0.12393507361412048, -0.301710844039917, -0.2812434434890747, 0.21607114374637604, 0.10179632157087326, -0.07129029929637909, -0.02865535020828247, -0.1024707779288292, 0.08490356802940369, 0.10798775404691696, 0.26639288663864136, 0.35990315675735474, 0.22464752197265625, 0.11374033242464066, -0.15889665484428406, 0.08821742981672287, -0.5770151019096375, 0.19195020198822021, -0.012804980389773846, 0.11767182499170303, -0.048991527408361435, -0.001657396205700934, 0.005987511016428471, -0.29752781987190247, 0.24434606730937958, 0.12473876029253006, -0.2175513058900833, -0.09839431196451187, -0.003231956157833338, -0.45058298110961914, 0.4188544452190399, 0.1313706636428833, 0.1413998156785965, 0.27281874418258667, 0.2541407644748688, -0.18841753900051117, -0.015488440170884132, -0.2403334230184555, -0.09118661284446716, 0.0649595558643341, -0.23895055055618286, 0.14681048691272736, 0.41182243824005127, 0.07213221490383148, -0.1298503279685974, 0.07308890670537949, -0.09860101342201233, -0.03166602924466133, 0.2948082983493805, 0.16533297300338745, 0.46294763684272766, 0.09755866974592209, -0.1199985221028328, 0.23527565598487854, 0.15271726250648499, -0.013657541014254093, -0.2205413430929184, 0.20653238892555237, -0.1795782893896103, -0.21345508098602295, -0.11136201024055481, -0.48844414949417114, -0.22613117098808289, 0.2161976397037506, 0.34461870789527893, 0.11955679208040237, 0.055483702570199966, -0.25867822766304016, -0.24945835769176483, -0.1797718107700348, -0.027926098555326462, -0.2730063498020172, -0.059242550283670425, 0.2391333431005478, -0.025889495387673378, 0.5041211247444153, 0.2216929942369461, 0.23953653872013092, -0.23548252880573273, 0.06817664951086044, 0.0912669450044632, 0.11055261641740799, -0.24446715414524078, 0.26002511382102966, 0.12034168094396591, 0.1680663377046585, 0.17998425662517548, -0.207895427942276, 0.14513428509235382, 0.1667359620332718, -0.054221250116825104, 0.23569266498088837, 0.015846485272049904, -0.18641068041324615, -0.16609147191047668, 0.04109741747379303, -0.14604942500591278, -0.26123642921447754, -0.06093675270676613, 0.3858456313610077, -0.0321066677570343, 0.10768892616033554, -0.127264142036438, -0.1387694776058197, -0.4095499813556671, 0.1728445589542389, -0.2893288731575012, 0.07450807094573975, -0.12705892324447632, 0.005194628611207008, 0.37796446681022644, 0.3885379135608673, -0.18812879920005798, -0.12702465057373047, -0.021669453009963036, -0.175489604473114, 0.28354015946388245, 0.11242915689945221, 0.23048695921897888, -0.3041118383407593, 0.30760395526885986, 0.007674623746424913, -0.010723797604441643, 0.43556201457977295, 0.020340753719210625, 0.25120025873184204, -0.05345933511853218, -0.11600494384765625, -0.07982808351516724, -0.08625032007694244, 0.13002878427505493, 0.02755262330174446, -0.37773922085762024, -0.20345669984817505, 0.17741377651691437, 0.21330378949642181, 0.13190676271915436, -0.28867456316947937, -0.037369582802057266, -0.1792439967393875, 0.08701339364051819, -0.17893700301647186, -0.0035345745272934437], [0.2937302887439728, -0.15047885477542877, 0.4475237727165222, -0.029815349727869034, -0.32216185331344604, 0.134207621216774, 0.028813663870096207, -0.4064338207244873, 0.01279526762664318, 0.12060585618019104, 0.401105135679245, -0.3167542517185211, -0.26286429166793823, -0.12257906049489975, 0.13005830347537994, -0.370628297328949, -0.3140082061290741, 0.3094281554222107, -0.34740638732910156, 0.27938219904899597, 0.11168872565031052, -0.06101321056485176, -0.11566781252622604, 0.24619294703006744, 0.20401069521903992, -0.03772905468940735, 0.5382394790649414, 0.12003538012504578, -0.036216672509908676, -0.06534350663423538, -0.29784390330314636, -0.15305016934871674, 0.15769264101982117, 0.11713438481092453, 0.03352533280849457, 0.2392912209033966, 0.561028778553009, 0.4560111165046692, 0.30522075295448303, 0.18091332912445068, -0.05390302464365959, -0.40405765175819397, 0.2573217749595642, -0.14613883197307587, 0.018904922530055046, 0.17624244093894958, -0.136013925075531, 0.16118726134300232, -0.3313537836074829, -0.08316498249769211, -0.09296538680791855, 0.2542426288127899, 0.5348712801933289, -0.14809687435626984, -0.0551273338496685, -0.2858823537826538, -0.025451920926570892, 0.19981594383716583, -0.4114789664745331, -0.6189115047454834, -0.012522031553089619, 0.18310517072677612, 0.10177819430828094, 0.3283217251300812, -0.16488811373710632, -0.3360878527164459, 0.04308309406042099, 0.07583845406770706, -0.2702935039997101, 0.01626889407634735, -0.1373262256383896, -0.14967602491378784, 0.09685166925191879, -0.1520702987909317, 0.6892318725585938, 0.16937950253486633, -0.3209399878978729, 0.020605159923434258, -0.3310259282588959, -0.18237178027629852, 0.18448051810264587, 0.16755981743335724, -0.034595098346471786, -0.25578612089157104, -0.2990764379501343, -0.24183331429958344, 0.32469111680984497, 0.02421218901872635, -0.12330523878335953, -0.03055078722536564, -0.010350599884986877, 0.07073947787284851, -0.1477212756872177, 0.10875477641820908, 0.019110552966594696, -0.09284887462854385, -0.31785309314727783, 0.33637070655822754, 0.6627333760261536, -0.29450154304504395, 0.06256949156522751, 0.0805809423327446, -0.030109822750091553, -0.2633596658706665, 0.287074476480484, -0.04937572032213211, -0.006153769325464964, 0.1882154941558838, -0.012286719866096973, -0.10186727344989777, -0.012299355119466782, -0.04265207424759865, -0.16700610518455505, -0.13792221248149872, 0.23641544580459595, -0.2041267305612564, -0.46934372186660767, 0.14598649740219116, -0.01564212515950203, -0.3304375112056732, 0.041943538933992386, -0.5594635009765625, 0.10708314180374146, 0.33103975653648376, 0.27626892924308777, 0.2614596486091614, 0.16386444866657257, -0.275900661945343, -0.2962207794189453, 0.13726021349430084, 0.521481454372406, 0.05787035822868347, -0.07859674096107483, -0.31096673011779785, -0.16386276483535767, -0.25963515043258667, -0.44121652841567993, -0.054003506898880005, -0.21515525877475739, 0.2048063427209854, 0.025803377851843834, -0.5268375873565674, -0.08187155425548553, 0.3056665062904358, -0.029559331014752388, 0.1474093347787857, -0.06790375709533691, -0.3132229149341583, 0.06277186423540115, 0.2981094419956207, -0.04142848774790764, 0.0022907969541847706, -0.14213107526302338, 0.20474979281425476, 0.26337507367134094, 0.30530568957328796, -0.4973238408565521, 0.00761209474876523, 0.40204429626464844, 0.1650029867887497, -0.20104046165943146, -0.10143785178661346, 0.2917199730873108, -0.13048088550567627, -0.21039412915706635, -0.05419641360640526, -0.2616593539714813, 0.09044566750526428, -0.4192099869251251, 0.3516649305820465, 0.1076609343290329, -0.03474657982587814, -0.20879685878753662, -0.14953981339931488, -0.14361752569675446, -0.22017261385917664, -0.02357538416981697, -0.012164995074272156, -0.7067508101463318, -0.23090794682502747, 0.18130113184452057, -0.2333221435546875, 0.10506820678710938, -0.4391768276691437, -0.036743130534887314, 0.18396595120429993, 0.3950823247432709, 0.35483279824256897, -0.14075300097465515, 0.05970080941915512, -0.5485256910324097, 0.07604940980672836, 0.1471564620733261, 0.2587904632091522, -0.19171789288520813, -0.19715934991836548, 0.19851860404014587, -0.17226307094097137, 0.041658706963062286, -0.6042808294296265, 0.08996985107660294, 0.2928772568702698, -0.15645280480384827, 0.006376591045409441, 0.29233407974243164, 0.45579373836517334, 0.290198415517807, 0.4818931519985199, -0.44367632269859314, -0.030151326209306717, 0.053244806826114655, 0.0070350575260818005, -0.4907809793949127, 0.191023051738739, 0.30540838837623596, -0.2951917350292206, -0.43639978766441345, -0.19668734073638916, -0.43482714891433716, -0.09185981005430222, 0.25519129633903503, -0.3102453351020813, 0.35330063104629517, 0.03479130193591118, 0.1436883807182312, -0.12513478100299835, 0.07415691018104553, -0.028215691447257996, 0.1914394497871399, 0.11324851214885712, -0.061778295785188675, -0.05283168703317642, -0.504703938961029, -0.03792782127857208, 0.024559127166867256, -0.22237874567508698, -0.2918615937232971, -0.04699503257870674, 0.1433648318052292, 0.21777518093585968, 0.34935325384140015, -0.1941334307193756, -0.01692388951778412, 0.269094854593277, -0.13711297512054443, -0.2484809160232544, 0.06640530377626419, -0.14024221897125244, -0.31225135922431946, -0.2018149048089981, 0.13278615474700928, -0.41099005937576294, 0.18541671335697174, 0.21411356329917908, -0.10451917350292206, 0.364085853099823], [-0.1482718139886856, 0.4416494071483612, -0.35819369554519653, -0.1315249353647232, 0.3482910692691803, 0.08712814003229141, -0.44410327076911926, 0.06884248554706573, -0.5498631596565247, -0.00637685414403677, -0.37753164768218994, 0.03582021966576576, 0.33909061551094055, 0.7995606064796448, -0.38305434584617615, 0.06683933734893799, 0.02461826056241989, -0.4568667709827423, -0.1249125748872757, 0.2709745466709137, -0.5634210705757141, 0.15376032888889313, 0.5506502389907837, -0.13870742917060852, -0.5535271763801575, -0.05776577442884445, -0.03178000450134277, 0.15534597635269165, 0.21048422157764435, 0.39969226717948914, -0.0939352884888649, 0.3747324049472809, 0.31401538848876953, 0.09267384558916092, 0.5328454375267029, -0.3884134590625763, 0.17891451716423035, -0.47282153367996216, -0.9650417566299438, 0.12375587224960327, -0.0011991062201559544, -0.05711815878748894, 0.0567767359316349, -0.06609762459993362, 0.17099696397781372, 0.20480458438396454, 0.17618601024150848, -0.14857417345046997, -0.39404773712158203, -0.2600349485874176, -0.22078759968280792, 0.18095774948596954, 0.08636392652988434, 0.09273777157068253, -0.4761106073856354, 0.057970114052295685, 0.19906698167324066, -0.03535883128643036, 0.15432950854301453, 0.3981119394302368, 0.004327781032770872, 0.10299241542816162, 0.29230621457099915, 0.060048699378967285, 0.70925372838974, 0.1872246265411377, 0.0663241297006607, -0.31516945362091064, 0.13774055242538452, -0.033521540462970734, -0.1250125616788864, 0.1205815002322197, -0.15114137530326843, 0.3927687108516693, -0.08909077197313309, -0.19228772819042206, 0.06375893205404282, 0.3718002736568451, 0.11860285699367523, 0.013464942574501038, -0.20469529926776886, -0.4480566382408142, -0.18274351954460144, -0.4321499764919281, 0.45982542634010315, 0.24216961860656738, 0.48458224534988403, 0.37057796120643616, -0.08980869501829147, -0.026417238637804985, -0.2186117023229599, -0.08373252302408218, 0.2573850154876709, 0.22163189947605133, 0.23351489007472992, -0.12158028036355972, 0.12610729038715363, 0.25771766901016235, -0.01313532330095768, -0.11263634264469147, 0.39849820733070374, -0.12325450032949448, 0.07488366961479187, 0.5012763142585754, -0.3877768814563751, -0.2563668489456177, -0.00668718945235014, 0.23622944951057434, -0.30774012207984924, 0.30117300152778625, -0.3200892508029938, -0.4250791072845459, -0.17346377670764923, 0.19413749873638153, -0.1680368334054947, -0.18801456689834595, -0.09920654445886612, 0.5278902053833008, -0.07675299048423767, 0.20164230465888977, 0.06157713755965233, 0.1752278059720993, -0.3640800416469574, -0.2922757863998413, -0.44184672832489014, 0.011568710207939148, -0.11067411303520203, 0.022106966003775597, 0.14334145188331604, -0.31988781690597534, -0.2179197520017624, -0.3498702347278595, -0.11157076805830002, -0.05212581157684326, 0.07201957702636719, 0.008539359085261822, 0.21390926837921143, 0.36213356256484985, 0.22077777981758118, -0.096587635576725, 0.023493193089962006, 0.9268653392791748, -0.4228232204914093, -0.12105616182088852, -0.17701824009418488, 0.08453816175460815, -0.09334085136651993, -0.6930299401283264, -0.029489243403077126, 0.2466186285018921, -0.21027112007141113, 0.040792230516672134, 0.4354064464569092, 0.06652220338582993, -0.21759481728076935, 0.11232368648052216, 0.1221555694937706, -0.17396777868270874, 0.186492919921875, -0.1282832771539688, -0.11628299951553345, 0.11580412089824677, 0.28986749053001404, -0.46939781308174133, 0.27872419357299805, -0.18739113211631775, -0.408638596534729, -0.5548762083053589, 0.22957563400268555, 0.36035647988319397, -0.30817440152168274, 0.05304498225450516, -0.10209760814905167, -0.1821875423192978, 0.16745036840438843, -0.2676260769367218, -0.49994564056396484, 0.3076770603656769, 0.17493441700935364, 0.16232571005821228, -0.24435092508792877, -0.2167954444885254, -0.18990011513233185, -0.6482802033424377, -0.07967701554298401, -0.033216457813978195, -0.4108099043369293, 0.17095042765140533, -0.09661606699228287, -0.02385699190199375, -0.13514970242977142, -0.07014259696006775, 0.27773961424827576, -0.06954369693994522, -0.4583239257335663, 0.10660244524478912, -0.46722152829170227, 0.22890248894691467, -0.05967346206307411, -0.20115885138511658, -0.39789465069770813, 0.09232451021671295, 0.08796937763690948, 0.5300794839859009, -0.2036803960800171, 0.32986271381378174, -0.5690483450889587, 0.1956551969051361, 0.18743404746055603, 0.39456906914711, -0.02322850376367569, -0.15962602198123932, 0.01764661632478237, 0.05278819054365158, -0.2926061153411865, -0.0846942588686943, 0.10509997606277466, -0.1739438772201538, 0.09997730702161789, 0.03920210525393486, -0.3412369191646576, -0.3793187141418457, -0.04262572154402733, 0.3307650089263916, -0.3430834710597992, -0.11210965365171432, -0.20144358277320862, -0.46703633666038513, -0.16365057229995728, 0.0809662938117981, 0.05694666877388954, 0.24943460524082184, 0.04344023019075394, -0.31511521339416504, -0.33932244777679443, -0.065055251121521, 0.24044503271579742, -0.07200799137353897, 0.1264239102602005, 0.4296615719795227, -0.16445177793502808, 0.21219179034233093, -0.20224963128566742, -0.43383923172950745, 0.06462455540895462, 0.14488619565963745, 0.1326361447572708, -0.39638373255729675, 0.045520294457674026, 0.20428131520748138, 0.09166248887777328, 0.5504424571990967, 0.07390910387039185, -0.15577279031276703, 0.23210515081882477, 0.10210542380809784], [0.13110578060150146, 0.19324564933776855, -0.0886184349656105, -0.1905844509601593, 0.21100585162639618, 0.17036113142967224, 0.09130651503801346, 0.2903103530406952, -0.1707248091697693, 0.09102402627468109, -0.04185362532734871, 0.20198790729045868, 0.30845627188682556, 0.07198037207126617, -0.18533441424369812, -0.1361912190914154, -0.05038800835609436, 0.24756059050559998, -0.2716763913631439, 0.046072717756032944, 0.0695548802614212, 0.19742679595947266, 0.28736335039138794, -0.11277660727500916, -0.054211750626564026, 0.13600870966911316, 0.3344639837741852, 0.2637457549571991, -0.040357526391744614, 0.07861147820949554, -0.02232530154287815, -0.20540733635425568, -0.19728316366672516, 0.06560274958610535, -0.14611878991127014, -0.005149738863110542, -0.10910941660404205, 0.06566452234983444, 0.06816935539245605, -0.200703427195549, 0.3572641611099243, 0.03739786520600319, -0.33594006299972534, -0.32474297285079956, -0.5347326993942261, 0.23062504827976227, 0.05918789282441139, -0.40555620193481445, -0.13585226237773895, -0.35256895422935486, 0.32941532135009766, 0.4342818856239319, 0.06977888941764832, 0.0980498418211937, 0.001114760641939938, -0.5252991318702698, 0.0827866643667221, -0.12089287489652634, -0.1504214107990265, -0.27583664655685425, -0.15588191151618958, 0.359810471534729, -0.018493235111236572, 0.3775636851787567, 0.022127149626612663, 0.16847732663154602, -0.24193540215492249, 0.04188023507595062, -0.20121823251247406, -0.11407334357500076, 0.4467674791812897, -0.1137482151389122, -0.3761187791824341, 0.11275967955589294, 0.48639529943466187, 0.3097454011440277, -0.06272146850824356, -0.1542910635471344, -0.13068194687366486, -0.47743287682533264, 0.03131859377026558, -0.1821005791425705, -0.03560224547982216, -0.5542232990264893, -0.20361143350601196, 0.20277807116508484, 0.14923562109470367, -0.05457622930407524, 0.028470627963542938, 0.23343509435653687, 0.4874008595943451, -0.19368618726730347, -0.5134916305541992, -0.3269332945346832, 0.07715742290019989, -0.4342987835407257, -0.3505963385105133, 0.0058222441002726555, -0.2618679404258728, 0.05091926082968712, -0.3732834756374359, -0.060573119670152664, -0.3954545855522156, 0.1441705971956253, 0.12425267696380615, -0.09443408995866776, -0.14426769316196442, -0.12666736543178558, 0.10539386421442032, 0.4505246579647064, 0.027466999366879463, 0.2772645950317383, -0.22088097035884857, -0.19958028197288513, 0.12166072428226471, 0.25294825434684753, -0.22354263067245483, -0.3032636344432831, 0.3340133726596832, 0.1073029488325119, -0.10441512614488602, -0.12832196056842804, 0.035703714936971664, 0.20486460626125336, 0.2621128261089325, -0.024945421144366264, -0.10918641835451126, -0.35863393545150757, -0.1976335644721985, 0.22575800120830536, 0.17373314499855042, -0.25946468114852905, -0.20047496259212494, -0.031475190073251724, -0.0663219690322876, 0.1295659840106964, 0.06841419637203217, -0.5046699047088623, -0.1248447597026825, -0.028171008452773094, 0.07504311203956604, 0.10633493959903717, 0.18194976449012756, 0.3827173113822937, -0.03521694242954254, -0.014398662373423576, 0.15534354746341705, -0.09270413219928741, -0.023130306974053383, -0.3793414235115051, 0.3477993309497833, 0.117995984852314, 0.04792064055800438, 0.12615065276622772, 0.04571045935153961, 0.3653133511543274, 0.27222582697868347, 0.08677621185779572, 0.34707486629486084, -0.4829440712928772, 0.1167159155011177, 0.26687362790107727, 0.014614245854318142, -0.09021315723657608, -0.3546084761619568, 0.2163745015859604, -0.24489282071590424, -0.023081686347723007, 0.10752642899751663, 0.36431074142456055, 0.2739158570766449, -0.43468520045280457, -0.4492492079734802, -0.11974393576383591, 0.15117217600345612, -0.32068055868148804, -0.389644593000412, -0.24259202182292938, -0.16467830538749695, 0.13677410781383514, 0.347013384103775, -0.25474658608436584, 0.2367362231016159, -0.03306303545832634, -0.11763784289360046, 0.07964175194501877, -0.46418148279190063, 0.25667211413383484, 0.025017807260155678, -0.33466723561286926, -0.015751242637634277, -0.1547292172908783, 0.07573509961366653, 0.2101629227399826, -0.2944979667663574, 0.2473367601633072, -0.15763798356056213, -0.0019689067266881466, -0.12426432967185974, 0.14496652781963348, 0.2305966466665268, 0.32392388582229614, -0.10429368168115616, -0.46204623579978943, -0.04431213438510895, -0.2740272581577301, 0.1812356412410736, -0.055771518498659134, 0.07123098522424698, -0.19009055197238922, 0.1764637678861618, -0.34956929087638855, -0.1916121244430542, -0.028800075873732567, 0.23722077906131744, -0.15237407386302948, -0.15699562430381775, 0.052542831748723984, 0.047810059040784836, -0.013849308714270592, -0.12962274253368378, -0.23008014261722565, -0.2613668441772461, 0.0910918265581131, -0.3800952732563019, 0.43610015511512756, 0.028430704027414322, -0.307327538728714, 0.1850609928369522, 0.4025055766105652, 0.06254027038812637, 0.012184658087790012, 0.09432221204042435, 0.11695525050163269, -0.05441912263631821, -0.1262018382549286, -0.04725528135895729, 0.03903500735759735, 0.051799945533275604, -0.23537686467170715, -0.3320876955986023, -0.030643168836832047, -0.05920572578907013, -0.13780225813388824, 0.11060236394405365, -0.32800284028053284, 0.19839975237846375, 0.10985198616981506, 0.13984650373458862, 0.09560705721378326, -0.02758503332734108, -0.15984424948692322, 0.11583636701107025, 0.025827903300523758, -0.016439536586403847, -0.16899338364601135], [0.07781462371349335, 0.10980139672756195, 0.11625120788812637, -0.14950567483901978, 0.24629217386245728, -0.01624567247927189, -0.06774122267961502, 0.1171896681189537, -0.33423569798469543, -0.09232471883296967, 0.042383864521980286, 0.04908524081110954, 0.29185906052589417, 0.18567584455013275, 0.010281315073370934, 0.3110881745815277, 0.5226696133613586, 0.26766955852508545, -0.05989185720682144, 0.23637892305850983, -0.4083055555820465, 0.4710313677787781, -0.42419999837875366, -0.11236776411533356, -0.27583998441696167, 0.11140808463096619, 0.0006398099358193576, 0.3586046099662781, 0.39656925201416016, -0.37321367859840393, -0.21536211669445038, -0.14752312004566193, 0.023990018293261528, 0.20345334708690643, 0.12983734905719757, -0.19305585324764252, -0.10676790028810501, -0.0263590756803751, -0.03082098439335823, -0.22676847875118256, 0.4927118420600891, 0.29905053973197937, -0.0783306136727333, -0.1319233775138855, -0.16841715574264526, -0.1670762598514557, 0.04954969882965088, 0.3201562166213989, -0.10979104042053223, 0.1731947362422943, -0.13686412572860718, -0.11717628687620163, -0.05879282206296921, 0.2798296809196472, -0.033902134746313095, -0.20928168296813965, 0.11935347318649292, 0.06551987677812576, -0.05675169825553894, 0.3470250070095062, 0.034985464066267014, 0.10652671754360199, -0.1335788369178772, -0.21665146946907043, -0.45887547731399536, 0.058098066598176956, 0.22415655851364136, -0.7977181673049927, 0.16729165613651276, 0.07754187285900116, -0.17827299237251282, -0.37961411476135254, -0.06458030641078949, -0.15462370216846466, -0.17004835605621338, -0.17265476286411285, -0.05464235320687294, 0.08977697789669037, -0.23138472437858582, 0.0551767572760582, -1.0843396186828613, 0.11389438807964325, -0.1666177362203598, -0.3421389162540436, 0.28679609298706055, -0.015278077684342861, -0.0018720469670370221, 0.06604029983282089, -0.3186499774456024, 0.1687937080860138, -0.36816272139549255, 0.24199065566062927, -0.043450210243463516, 0.032798897475004196, -0.2562393844127655, 0.3389909267425537, -0.24765950441360474, 0.43433332443237305, -0.06928913295269012, -0.22135286033153534, 0.11025635153055191, -0.11426389217376709, -0.1455976814031601, 0.09625459462404251, -0.31869930028915405, -0.022697435691952705, 0.03888566792011261, 0.42348843812942505, -0.1625247746706009, 0.44362396001815796, 0.06328367441892624, 0.03328569233417511, 0.08733940869569778, -0.21230460703372955, -0.009632446803152561, 0.05150097608566284, 0.3825835883617401, 0.15285438299179077, -0.2554300129413605, -0.027263620868325233, -0.20319822430610657, 0.28006383776664734, 0.018361257389187813, -0.43088972568511963, 0.09942757338285446, 0.11294103413820267, -0.30505427718162537, 0.27885374426841736, 0.2329406589269638, 0.4446941018104553, -0.04394882917404175, 0.4016991853713989, 0.05823865160346031, 0.21025757491588593, -0.22777725756168365, 0.32451653480529785, 0.1902473270893097, -0.34833046793937683, -0.1446278691291809, 0.02985004521906376, 0.10114919394254684, 0.1862536370754242, -0.1760360151529312, 0.20539599657058716, 0.36229416728019714, -0.04870348796248436, -0.0815761536359787, 0.14173279702663422, -0.45160630345344543, -0.17483265697956085, -0.06600585579872131, 0.5468832850456238, 0.04611578211188316, 0.11382642388343811, -0.19458961486816406, -0.27238932251930237, 0.26454874873161316, 0.06614869832992554, 0.36526739597320557, -0.21218037605285645, 0.3505713641643524, 0.0328856036067009, -0.0385337732732296, 0.12591338157653809, -0.09881722927093506, -0.062485672533512115, 0.10149850696325302, 0.12610653042793274, 0.07074621319770813, 0.1521391123533249, -0.3306713104248047, 0.33431947231292725, -0.14243552088737488, -0.20726627111434937, 0.20579463243484497, -0.13494524359703064, -0.4784383475780487, -0.3088778257369995, -0.01513613574206829, 0.03860502690076828, -0.3195266127586365, -0.45819544792175293, 0.08185026049613953, -0.21858897805213928, 0.07112246751785278, 0.08250574767589569, -0.08510531485080719, 0.4258594214916229, 0.006740376353263855, -0.044741787016391754, -0.28434494137763977, -0.08560126274824142, -0.035018470138311386, -0.5047926306724548, -0.040325287729501724, 0.00068816909333691, -0.3293239176273346, 0.05865567550063133, 0.45179733633995056, -0.13040423393249512, -0.20515216886997223, -0.3503190577030182, -0.009995201602578163, 0.48944994807243347, -0.34910884499549866, 0.2632747292518616, -0.0001428421528544277, -0.12370170652866364, 0.17852948606014252, 0.23338532447814941, -0.36258557438850403, -0.1935531198978424, 0.13323889672756195, -0.09361866861581802, -0.3470619320869446, 0.17827582359313965, 0.1624721884727478, 0.19866259396076202, 0.22529497742652893, -0.02634134702384472, 0.25307732820510864, 0.11424964666366577, 0.05911041051149368, -0.04868841916322708, -0.4348716139793396, 0.30121472477912903, -0.5098521113395691, -0.20033422112464905, -0.021680040284991264, -0.19840310513973236, -0.13525043427944183, 0.0663456991314888, 0.07368001341819763, 0.3516184091567993, -0.08651232719421387, 0.23776671290397644, 0.17244188487529755, 0.2744593918323517, 0.09699301421642303, 0.1613283008337021, -0.28133535385131836, -0.04349219799041748, -0.38468137383461, -0.16637621819972992, -0.41824766993522644, -0.03187872841954231, 0.3144342601299286, -0.18711352348327637, -0.04758280888199806, -0.31050705909729004, -0.004172313027083874, 0.2706339955329895, -0.06196270138025284, -0.18222908675670624, -0.17815250158309937, 0.3376859128475189], [-0.1489589810371399, -0.08846838772296906, 0.1816728264093399, -0.4142293930053711, -0.010821293108165264, -0.05741041153669357, -0.38625404238700867, 0.13274884223937988, 0.20033633708953857, -0.3463234305381775, -0.33099812269210815, 0.15674357116222382, 0.10407309234142303, 0.2151564210653305, -0.08273912966251373, -0.22236505150794983, -0.07885704189538956, 0.025337815284729004, 0.32121074199676514, -0.27804458141326904, 0.16126729547977448, -0.3031643331050873, 0.1620728075504303, 0.12587504088878632, -0.03275531902909279, 0.19094842672348022, -0.034990094602108, -0.2052447646856308, -0.151892751455307, -0.1508026272058487, 0.019258597865700722, 0.016518903896212578, 0.0671602264046669, 0.21394190192222595, 0.17333871126174927, -0.024889500811696053, 0.20044495165348053, -0.07730589061975479, 0.04677543416619301, -0.20474234223365784, 0.2581234872341156, 0.37379398941993713, 0.13942186534404755, 0.14363142848014832, -0.06317555159330368, -0.35123759508132935, -0.11494068056344986, 0.08085951209068298, -0.03909389302134514, -0.02454063668847084, 0.5650437474250793, 0.19032730162143707, 0.12841621041297913, 0.0045667728409171104, -0.08654359728097916, 0.0727001503109932, -0.1145293265581131, 0.010513143613934517, -0.3248502314090729, -0.0961737111210823, 0.3173026442527771, -0.17797231674194336, 0.1264648288488388, 0.43056797981262207, 0.3110625147819519, 0.048967428505420685, -0.1756589114665985, 0.28268030285835266, 0.14975203573703766, 0.15997490286827087, 0.30472061038017273, 0.07205938547849655, 0.05047236755490303, 0.032773129642009735, 0.06012120097875595, 0.08290667086839676, -0.18554268777370453, 0.08549076318740845, 0.3619837760925293, -0.16356511414051056, 0.21754394471645355, -0.014116986654698849, 0.11782471090555191, -0.006917670834809542, 0.2902984321117401, 0.14146688580513, 0.15936115384101868, 0.03427698463201523, 0.036995306611061096, 0.003301053773611784, -0.18742425739765167, 0.2152072638273239, 0.20468440651893616, 0.3033812642097473, 0.06814198940992355, -0.3714485764503479, -0.04215501993894577, 0.16272419691085815, -0.29684367775917053, 0.155096635222435, -0.2951951026916504, -0.007131445687264204, 0.0792514756321907, -0.22897666692733765, 0.2126179337501526, -0.060970522463321686, -0.31502780318260193, -0.008969344198703766, -0.6522953510284424, -0.3780313730239868, -0.13801594078540802, -0.3125, 0.04903530329465866, 0.10169334709644318, 0.355726420879364, 0.19659563899040222, -0.2958776354789734, -0.29479092359542847, -0.1109844222664833, -0.17461255192756653, 0.11507560312747955, -0.19867458939552307, 0.16955573856830597, 0.14535094797611237, -0.11192376166582108, -0.22299085557460785, -0.319227397441864, 0.20029936730861664, 0.07069642096757889, 0.09087096899747849, 0.04927268996834755, 0.15416750311851501, -0.01733827032148838, -0.06528060138225555, 0.10027607530355453, 0.2569849193096161, -0.32420405745506287, 0.15780849754810333, -0.02349075861275196, 0.033865004777908325, -0.1608644425868988, 0.21559526026248932, 0.3687949478626251, 0.2264861911535263, 0.03549627214670181, -0.030295463278889656, -0.21844582259655, -0.12133009731769562, 0.05781494081020355, 0.1314312368631363, 0.09207692742347717, -0.0620020292699337, -0.36667194962501526, -0.052002161741256714, -0.027821676805615425, -0.040141377598047256, 0.2184743881225586, 0.10889876633882523, -0.07865820080041885, 0.05099773034453392, 0.09291703253984451, -0.0010452286805957556, -0.006362087093293667, 0.03852203115820885, 0.1920759677886963, 0.12346721440553665, 0.23692631721496582, -0.23738671839237213, -0.2541538178920746, -0.4150012731552124, 0.39938029646873474, -0.09798037260770798, 0.022482842206954956, -0.1296842247247696, -0.10399971157312393, -0.2316361367702484, 0.1170969307422638, -0.07494031637907028, 0.19256199896335602, 0.2098795771598816, -0.159665048122406, 0.1504964977502823, -0.07515325397253036, 0.0497596338391304, 0.06904983520507812, -0.17213667929172516, 0.4573359489440918, 0.12087045609951019, -0.309910386800766, 0.23921437561511993, -0.04411086067557335, -0.13373567163944244, -0.011605017818510532, 0.4151224195957184, -0.06445474922657013, -0.04924073442816734, -0.4843465983867645, -0.048754334449768066, -0.45287570357322693, -0.33297625184059143, -0.05217484384775162, 0.03581532463431358, -0.03296046331524849, -0.025863010436296463, 0.07873453199863434, -0.10715127736330032, -0.17834989726543427, -0.11868603527545929, -0.18143688142299652, -0.011356768198311329, 0.27297550439834595, 0.22839723527431488, -0.12334597110748291, 0.14798030257225037, -0.08147891610860825, -0.016821572557091713, 0.42492565512657166, -0.20593637228012085, 0.15898464620113373, 0.24636121094226837, -0.03493965417146683, 0.17920275032520294, 0.1272062063217163, 0.2429884523153305, 0.22594650089740753, -0.21825389564037323, 0.019576601684093475, 0.0886535495519638, 0.20063002407550812, 0.27253592014312744, 0.1407986432313919, 0.06469231098890305, 0.2583874762058258, -0.24765023589134216, 0.12673257291316986, -0.2905659079551697, 0.4425267279148102, -0.042583636939525604, -0.059988684952259064, -0.06724689900875092, -0.0041949562728405, 0.20684397220611572, 0.006839712616056204, 0.09212958067655563, 0.24289821088314056, 0.20178037881851196, 0.14373143017292023, -0.17072510719299316, 0.26274317502975464, -0.08436524122953415, 0.19222912192344666, 0.11886265873908997, -0.10291895270347595, -0.14519688487052917, 0.1322392374277115, -0.158680260181427], [0.6592490077018738, -0.0991399735212326, -0.563625156879425, 0.6056462526321411, -0.2852606773376465, -0.228928342461586, 0.6300765872001648, -0.4540218114852905, -0.2175939679145813, -0.31029051542282104, 0.174112930893898, -0.04959768056869507, 0.6415762305259705, -0.4813075661659241, -0.08263019472360611, 0.1366674154996872, -0.1350681036710739, -0.16234754025936127, -0.712506890296936, -0.05505625158548355, -0.08823322504758835, -0.12606598436832428, -0.39614126086235046, -0.38457053899765015, -0.20885786414146423, -0.2617374062538147, -0.010583547875285149, 0.28704047203063965, 0.28601890802383423, 0.22621412575244904, -0.2133845090866089, -0.3987247049808502, 0.2973330318927765, -0.2354608178138733, 0.07344251871109009, 0.7475157976150513, -0.2576623260974884, 0.0018814366776496172, 0.3234536647796631, -0.24657870829105377, 0.24070943892002106, 0.19366015493869781, -0.7988860607147217, -0.23126226663589478, 0.3992674648761749, 0.3002176880836487, 0.1205044686794281, 0.4463665783405304, -0.3057585656642914, -0.11815327405929565, -0.3003093898296356, 0.12204579263925552, 0.08979284763336182, 0.36159899830818176, -0.27530503273010254, -0.37682250142097473, 0.08618349581956863, 0.27668413519859314, 0.13023456931114197, -0.23983223736286163, -0.16976897418498993, -0.20281466841697693, -0.37274953722953796, -0.1650388538837433, -0.012814419344067574, -0.24458454549312592, 0.08284161984920502, 0.11131954938173294, -0.16245892643928528, -0.16404029726982117, 0.10797753930091858, -0.33742842078208923, -0.10906318575143814, 0.046176470816135406, 0.2220723032951355, -0.45786386728286743, 0.13774031400680542, -0.45485857129096985, -0.275637686252594, 0.446742445230484, -0.6741520762443542, -0.15310107171535492, 0.39525067806243896, -0.23879677057266235, 0.06942860782146454, 0.18617284297943115, 0.03832514211535454, 0.1042526364326477, 0.09916709363460541, 0.01199466735124588, 0.581771969795227, 0.23026661574840546, -0.016590822488069534, -0.16533224284648895, -0.27087104320526123, -0.22795145213603973, -0.13774119317531586, 0.05066336691379547, 0.4018629789352417, -0.009809331968426704, 0.04210371896624565, -0.10958245396614075, 0.18339025974273682, 0.016845354810357094, 0.3715849220752716, -0.5097948908805847, 0.136313796043396, 0.6992110013961792, 0.09529370069503784, 0.21840521693229675, 0.06075773388147354, 0.17061319947242737, -0.0660838931798935, 0.051734559237957, -0.02353842183947563, -0.48677945137023926, 0.23333139717578888, 0.44342803955078125, 0.2886372208595276, -0.015559235587716103, 0.07964655011892319, -0.25450921058654785, 0.19516244530677795, 0.10758379101753235, 0.08878042548894882, -0.0024494146928191185, -0.13561402261257172, 0.3659897744655609, 0.0076929605565965176, -0.20155532658100128, -0.38976478576660156, -0.09092126786708832, -0.005437860265374184, 0.283346027135849, 0.09122124314308167, -0.3825165033340454, 0.03714236244559288, 0.1503153294324875, -0.09686131775379181, 0.2594699561595917, -0.08071211725473404, -0.11626861244440079, -0.022909382358193398, 0.1165485680103302, -0.12395957112312317, 0.43831825256347656, 0.16198641061782837, -0.03530235216021538, -0.7754603028297424, -0.09978128969669342, 0.02197793871164322, -0.09304174780845642, -0.025302154943346977, 0.30094408988952637, -0.25189530849456787, -0.11590369790792465, 0.05137375742197037, -0.13530513644218445, -0.17737407982349396, 0.0008165366598404944, -0.24187034368515015, -0.38786157965660095, -0.16798213124275208, -0.4878959357738495, -0.3439650535583496, -0.041903551667928696, -0.29802438616752625, -0.21903067827224731, -0.15641024708747864, 0.1714760959148407, -0.5566099882125854, -0.4105393886566162, 0.15268951654434204, 0.3142174780368805, -0.1140454038977623, 0.08651973307132721, -0.14592494070529938, 0.15322329103946686, -0.27209576964378357, 0.03272097557783127, 0.21050581336021423, 0.23061221837997437, -0.10443582385778427, -0.2753071188926697, 0.08168257772922516, 0.37869352102279663, -0.14082129299640656, 0.6855034828186035, 0.12540368735790253, -0.1069733276963234, -0.5299393534660339, 0.164155051112175, 0.1962624341249466, -0.2307317703962326, 0.522643506526947, 0.06015333905816078, -0.06467696279287338, -0.21570131182670593, 0.057293523102998734, 0.009560192935168743, -0.38255575299263, 0.2448924332857132, -0.4825584292411804, 0.4011590778827667, 0.23634503781795502, 0.2214146852493286, -0.38875812292099, 0.0259404294192791, 0.20444442331790924, 0.07413236796855927, -0.15809239447116852, -0.29038098454475403, 0.574826180934906, -0.3555425703525543, -0.03324855491518974, -0.07984669506549835, -0.5045862197875977, 0.26670897006988525, -0.2284875512123108, -0.17725805938243866, 0.10451092571020126, 0.02592051587998867, -0.32358360290527344, -0.09375262260437012, -0.13941973447799683, -0.47029200196266174, -0.3563735783100128, -0.05772175267338753, 0.4398457109928131, -0.08866222202777863, -0.1309286206960678, -0.48588117957115173, 0.08029469847679138, -0.241346538066864, -0.7037004828453064, -0.2028615027666092, -0.05432210490107536, -0.02245720662176609, -0.32124555110931396, -0.05910980701446533, -0.12051118165254593, -0.5951053500175476, 0.1208348423242569, 0.04139050841331482, -0.028147615492343903, 0.061384622007608414, -0.20402267575263977, 0.2678804397583008, -0.4208252727985382, 0.30609723925590515, -0.029461104422807693, -0.19526407122612, 0.32248300313949585, 0.09270279109477997, -0.23424455523490906, -0.10486772656440735], [0.21024732291698456, -0.0508788526058197, 0.1633625328540802, -0.24010592699050903, 0.021823594346642494, -0.27640777826309204, 0.04425552114844322, -0.051821138709783554, -0.3289813995361328, -0.11850931495428085, 0.05589837580919266, 0.33996665477752686, -0.2692086398601532, -0.15596836805343628, 0.019769705832004547, -0.1561620831489563, 0.08882183581590652, 0.3501758873462677, 0.24509820342063904, -0.2265499383211136, 0.01056718174368143, -0.008173897862434387, 0.27523696422576904, -0.12212911248207092, 0.33655256032943726, 0.06404926627874374, -0.018382316455245018, 0.025046156719326973, -0.04258815571665764, -0.17775972187519073, -0.280565083026886, -0.07573790103197098, -0.04968443885445595, -0.15913739800453186, 0.11368762701749802, 0.1041528582572937, 0.0881110429763794, 0.3040328323841095, -0.1714199185371399, -0.0004276246763765812, 0.10726325213909149, 0.11914142966270447, -0.28900638222694397, 0.038280557841062546, -0.2428256869316101, 0.133601114153862, -0.075838103890419, -0.08535704016685486, -0.1840769201517105, -0.23595960438251495, 0.024874553084373474, -0.04566250741481781, 0.12730064988136292, -0.09943751990795135, 0.0926731526851654, 0.2927308678627014, 0.37970077991485596, 0.04599564149975777, 0.14440448582172394, -0.046199508011341095, 0.4648267328739166, 0.09706070274114609, -0.11387290060520172, -0.04986189305782318, 0.25856664776802063, -0.18292094767093658, 0.0890800729393959, -0.09385468810796738, -0.10711650550365448, 0.17743366956710815, 0.1512061208486557, 0.05911717191338539, 0.02164699137210846, -0.03527789190411568, -0.15282586216926575, -0.16103465855121613, -0.4886505901813507, 0.2465430647134781, -0.20959967374801636, -0.1691487580537796, 0.19667260348796844, 0.0452272891998291, 0.20529010891914368, -0.10857383161783218, 0.23296207189559937, -0.09156399965286255, 0.04053175076842308, -0.04224827513098717, -0.03404500335454941, 0.17028573155403137, -0.05995501950383186, -0.08299852162599564, -0.18986517190933228, 0.13172531127929688, -0.17380133271217346, -0.18650132417678833, -0.346193790435791, 0.11651397496461868, 0.12449943274259567, -0.008198169991374016, -0.08782016485929489, 0.27908170223236084, 0.1878805160522461, 0.25662311911582947, -0.11709407716989517, -0.06774833053350449, -0.06780702620744705, 0.10049320757389069, -0.2228524088859558, -0.17601428925991058, -0.12149510532617569, -0.2565001845359802, -0.024517672136425972, -0.06861931830644608, 0.1688121110200882, -0.12235036492347717, 0.022166989743709564, 0.20512568950653076, 0.21664990484714508, 0.21358336508274078, 0.16773568093776703, -0.17982323467731476, 0.0663018748164177, -0.07784394174814224, -0.1579793393611908, 0.26880183815956116, 0.025453366339206696, -0.10336911678314209, 0.42571648955345154, 0.10303957760334015, -0.06419649720191956, -0.012702291831374168, 0.2152685672044754, 0.24738800525665283, 0.06623098999261856, -0.18441027402877808, 0.06947590410709381, 0.3781425952911377, -0.055339425802230835, -0.17734523117542267, 0.011704687960445881, -0.14519160985946655, 0.06378395855426788, 0.2540252208709717, -0.0796317607164383, -0.018897628411650658, -0.05643852427601814, 0.258105993270874, -0.19244232773780823, 0.1528860479593277, -0.11466062068939209, 0.05656511336565018, 0.012437156401574612, -0.02075892686843872, -0.16449761390686035, 0.40133315324783325, 0.15389028191566467, -0.02291063778102398, -0.03541194647550583, 0.13930125534534454, -0.18361996114253998, -0.21985679864883423, 0.02818678691983223, -0.1418900042772293, -0.17678065598011017, -0.34995803236961365, 0.1114824190735817, -0.14021991193294525, -0.06996408104896545, 0.2001487761735916, 0.1869012415409088, -0.051830679178237915, 0.008837376721203327, 0.2963211238384247, -0.04744833707809448, -0.10937510430812836, 0.013394052162766457, 0.4261598587036133, 0.17133933305740356, -0.047653719782829285, 0.008755907416343689, 0.21062558889389038, 0.016779741272330284, -0.3871254622936249, 0.21117927134037018, 0.08543664216995239, -0.043634142726659775, -0.006221030838787556, -0.05609922111034393, -0.06782706826925278, -0.03686312586069107, 0.23726344108581543, 0.08679281920194626, 0.32411813735961914, 0.04804125055670738, -0.08934132009744644, -0.16131997108459473, -0.3772955536842346, 0.08089860528707504, -0.44211921095848083, 0.03619819134473801, -0.19312089681625366, 0.20614255964756012, -0.12989625334739685, 0.23796018958091736, 0.03737602010369301, 0.08426093310117722, -0.04955531284213066, -0.28663983941078186, -0.31990545988082886, 0.11169954389333725, 0.08445259928703308, 0.0055345469154417515, -0.05357733368873596, 0.1664029210805893, -0.28178349137306213, -0.053488507866859436, -0.6013795137405396, 0.0625397339463234, 0.03217203542590141, -0.040373362600803375, -0.07681325823068619, -0.13865134119987488, 0.2509119510650635, 0.2063542604446411, 0.16358345746994019, -0.2636231482028961, 0.2115904688835144, -0.16738896071910858, 0.34365731477737427, 0.08460776507854462, 0.194972962141037, 0.20415912568569183, -0.3293777406215668, 0.20378302037715912, -0.49589067697525024, -0.09601452201604843, 0.4190868139266968, -0.07212705165147781, 0.21624186635017395, 0.020937196910381317, -0.36305075883865356, 0.1566028594970703, -0.01251564733684063, 0.15020936727523804, 0.07591646909713745, -0.03741941973567009, -0.3295781910419464, -0.12399112433195114, -0.2211921662092209, -0.1135239526629448, -0.2581893503665924, 0.027994900941848755, 0.21205095946788788, 0.061479952186346054, 0.04321138560771942], [-0.3864414393901825, 0.07006552815437317, -0.4281952977180481, -0.5475453734397888, 0.17233343422412872, -0.28190499544143677, -0.2832733988761902, -0.1847517490386963, -0.11174804717302322, -0.2870251536369324, -0.3203374445438385, -0.10919035226106644, 0.32776039838790894, -0.2928583025932312, 0.06333204358816147, 0.02922801859676838, 0.16131670773029327, -0.02436460740864277, -0.43236178159713745, -0.3900149166584015, -0.2760108709335327, -0.25103268027305603, -0.127090185880661, 0.11487075686454773, 0.028181832283735275, 0.04205061122775078, 0.1336212158203125, -0.230144664645195, -0.1604766547679901, 0.43127378821372986, -0.05504033342003822, -0.029173916205763817, 0.21550290286540985, 0.23720212280750275, -0.4990546405315399, 0.2967749238014221, -0.3867879807949066, -0.0851871445775032, 0.061166685074567795, -0.15776975452899933, 0.13845111429691315, 0.056435201317071915, -0.29793781042099, -0.04312094300985336, 0.1310645043849945, -0.023469097912311554, 0.48813387751579285, -0.0008473293273709714, 0.37150150537490845, -0.136752188205719, -0.3081730008125305, -0.23689620196819305, 0.29752910137176514, 0.03111017867922783, -0.3556322455406189, 0.09578585624694824, -0.32203638553619385, 0.19732427597045898, -0.044125836342573166, -0.13397952914237976, 0.32879552245140076, -0.021992821246385574, 0.02074933797121048, 0.07032063603401184, 0.046920206397771835, 0.23424887657165527, -0.17339657247066498, 0.02566957101225853, -0.2536589801311493, -0.22013480961322784, 0.1719934642314911, 0.1270904541015625, -0.009847779758274555, 0.0462428443133831, 0.12947531044483185, -0.1276523321866989, 0.2625516653060913, 0.7530895471572876, 0.008994383737444878, 0.06719637662172318, -0.3222372829914093, -0.1366426795721054, 0.05549319460988045, 0.19822576642036438, -0.29725509881973267, 0.10809227079153061, 0.21823333203792572, -0.30005544424057007, 0.05894853547215462, 0.29725950956344604, 0.15658153593540192, -0.10788679867982864, -0.28689730167388916, -0.36692535877227783, -0.6239660382270813, -0.02249113656580448, 0.07861671596765518, 0.3163570463657379, 0.1803535670042038, 0.22099986672401428, 0.18895868957042694, 0.3745996952056885, -0.19128641486167908, -0.7773388028144836, -0.14186398684978485, 0.1497572660446167, 0.36702752113342285, -0.203653022646904, 0.020595228299498558, -0.008301427587866783, -0.13595497608184814, 0.4279195964336395, -0.03740310296416283, 0.1787712424993515, 0.07115065306425095, 0.24551093578338623, -0.016855789348483086, -0.3756228983402252, 0.15370599925518036, -0.12850135564804077, -0.21227329969406128, 0.17804580926895142, -0.16480515897274017, 0.08813520520925522, -0.21710970997810364, 0.026956839486956596, 0.06796376407146454, 0.3747411370277405, -0.6087595224380493, 0.2981615364551544, -0.005745053291320801, -0.20498035848140717, 0.04194680601358414, -0.7267695665359497, 0.03572121262550354, 0.02982226386666298, -0.08485542237758636, 0.03392389416694641, 0.07859353721141815, -0.23414020240306854, 0.00971635989844799, 0.13034383952617645, 0.17326568067073822, -0.2581160068511963, 0.11130902916193008, 0.0644645020365715, -0.35541677474975586, -0.15855525434017181, 0.40800410509109497, -0.08008918166160583, 0.07795927673578262, 0.11794515699148178, 0.13128544390201569, 0.32795676589012146, 0.6146385669708252, 0.09127786755561829, -0.06905524432659149, 0.06141987070441246, 0.02912023290991783, 0.12567296624183655, 0.47232505679130554, -0.39666470885276794, -0.18201150000095367, 0.2084096223115921, -0.08060694485902786, -0.3010496497154236, 0.35437172651290894, -0.21635878086090088, 0.2965005338191986, -0.2781373858451843, -0.11120954900979996, -0.5936668515205383, 0.11210344731807709, 0.2636250853538513, 0.19664354622364044, 0.3323076367378235, 0.45238927006721497, -0.1437387764453888, 0.2165333330631256, 0.16565151512622833, -0.31116726994514465, 0.2489199936389923, 0.6251144409179688, 0.09043945372104645, -0.2728045582771301, 0.08347999304533005, -0.4121200740337372, 0.5572211742401123, -0.4615269899368286, -0.1495051234960556, 0.00708662299439311, 0.02398098260164261, -0.2164473682641983, -0.3191260099411011, 0.2247505784034729, 0.2912715971469879, 0.28482359647750854, 0.19194790720939636, -0.09625045210123062, -0.08822907507419586, -0.2607187330722809, 0.6913731694221497, -0.6205167770385742, -0.4720049798488617, 0.0953766256570816, -0.2460256963968277, 0.24959971010684967, -0.21165454387664795, -0.07713844627141953, 0.43980005383491516, -0.31493669748306274, -0.189994677901268, -0.007041076198220253, 0.2446654886007309, -0.14609044790267944, 0.19831418991088867, -0.28662213683128357, 0.28807032108306885, -0.14386364817619324, -0.22393260896205902, -0.3669931888580322, -0.08862128853797913, 0.018796797841787338, -0.35318392515182495, -0.20960092544555664, 0.08060947060585022, -0.15804985165596008, 0.0383458212018013, -0.24820943176746368, 0.03663519024848938, -0.28743481636047363, 0.2472194880247116, 0.07805362343788147, 0.4783455431461334, 0.09953972697257996, -0.41886672377586365, 0.5336946249008179, 0.05455822870135307, -0.33015310764312744, -0.18062780797481537, 0.036432620137929916, 0.7191160321235657, 0.3577367067337036, 0.06621245294809341, 0.16412223875522614, -0.0069487569853663445, 0.252952516078949, -0.025101952254772186, 0.31165578961372375, -0.5827606916427612, -0.09807004779577255, -0.08237231522798538, -0.39728832244873047, 0.012739850208163261, -0.282387912273407, -0.10671614110469818], [0.17166517674922943, 0.21158969402313232, 0.016470570117235184, -0.1142495647072792, -0.06449462473392487, -0.4726497232913971, -0.5243712663650513, -0.42925697565078735, -0.16553369164466858, -0.21054363250732422, 0.05728742480278015, 0.05766431614756584, -0.6036819815635681, -0.1620788723230362, 0.23136526346206665, 0.12881684303283691, -0.1634446233510971, -0.029882412403821945, 0.07994519174098969, -0.32143568992614746, -0.35236474871635437, 0.13790547847747803, 0.0901956632733345, -0.0771876871585846, 0.3313761055469513, -0.32539916038513184, 0.11746300011873245, -0.023267917335033417, 0.11396412551403046, -0.19779810309410095, 0.3123945891857147, 0.06425637006759644, 0.32375818490982056, 0.1142558678984642, 0.3140283226966858, 0.0009423423325642943, -0.3786126673221588, -0.18182240426540375, -0.320057213306427, -0.16456975042819977, 0.032134972512722015, 0.11001542955636978, -0.03615265712141991, -0.11667126417160034, 0.1942230463027954, -0.1327122002840042, 0.3888685405254364, 0.41178739070892334, -0.049336403608322144, 0.21919509768486023, -0.21026712656021118, 0.02693895436823368, -0.03575680032372475, -0.21688054502010345, 0.08877110481262207, -0.26242032647132874, 0.06449311226606369, 0.5882615447044373, -0.22179901599884033, 0.19414591789245605, 0.22684937715530396, -0.5024723410606384, 0.2337883710861206, 0.1853323131799698, 0.10317672789096832, -0.0914207324385643, 0.07270876318216324, 0.008040515705943108, 0.026431875303387642, 0.11233334988355637, 0.17088037729263306, -0.09034020453691483, 0.03709479048848152, 0.10840478539466858, -0.1720351129770279, -0.2841750383377075, 0.11379893124103546, 0.3290618360042572, 0.2639229893684387, -0.13586628437042236, 0.009790677577257156, 0.3709107041358948, 0.16501149535179138, 0.12671491503715515, -0.12187840789556503, 0.21090291440486908, -0.3677956163883209, -0.2173384130001068, -0.21117664873600006, 0.5083092451095581, 0.2162298560142517, 0.024914076551795006, -0.03535952791571617, 0.17928387224674225, -0.3049645721912384, -0.1163356825709343, -0.21602286398410797, 0.062434084713459015, 0.2771015763282776, -0.1674787551164627, 0.11043090373277664, 0.3195473849773407, 0.16975760459899902, -0.0568024106323719, -0.10222531855106354, 0.10143986344337463, -0.11115143448114395, -0.04976817965507507, -0.13242319226264954, -0.3697111904621124, 0.04899502173066139, -0.21587321162223816, 0.09784850478172302, 0.3947446644306183, -0.0815952867269516, -0.14402292668819427, 0.3497367799282074, -0.14898301661014557, 0.5898651480674744, 0.3220530152320862, -0.18213079869747162, -0.09256738424301147, 0.24285857379436493, 0.14804290235042572, -0.0675765797495842, -0.009947173297405243, 0.004635664634406567, 0.3116738796234131, 0.17960870265960693, -0.06554098427295685, -0.22187477350234985, -0.11870536208152771, -0.13105864822864532, 0.4255206882953644, -0.05076683685183525, 0.21922127902507782, 0.35266220569610596, -0.12162250280380249, -0.1686621755361557, 0.04205193370580673, -0.022919299080967903, -0.02824717015028, -0.015546812675893307, 0.13203153014183044, -0.3561071753501892, -0.12100160121917725, 0.23741833865642548, 0.0526265874505043, -0.14102265238761902, -0.3544706702232361, -0.10049426555633545, -0.30960702896118164, 0.2039923071861267, 0.09220456331968307, 0.3035234808921814, 0.2367820292711258, 0.2284071296453476, -0.11085391789674759, -0.0006565760704688728, -0.10917454212903976, 0.07686919718980789, -0.2128315269947052, 0.025430995970964432, 0.13492487370967865, 0.09679398685693741, 0.07491810619831085, -0.07465678453445435, -0.4540943503379822, 0.004008910618722439, -0.27713218331336975, -0.04930642247200012, -0.3469258248806, -0.189918652176857, 0.02970457449555397, -0.18518051505088806, 0.28754207491874695, 0.4447675049304962, 0.055531635880470276, 0.17044949531555176, -0.0984828919172287, -0.3160499930381775, 0.05018940940499306, -0.10832291841506958, -0.1837702840566635, -0.23757733404636383, 0.12649790942668915, 0.26374900341033936, 0.19468571245670319, -0.3032682240009308, 0.26576951146125793, -0.04475972801446915, -0.1987660825252533, 0.26667866110801697, 0.3154323995113373, -0.4348093867301941, 0.2092035710811615, -0.17377100884914398, -0.23059947788715363, 0.006055212579667568, -0.1718549281358719, -0.31411534547805786, 0.15901422500610352, -0.32152339816093445, -0.06462296843528748, 0.25675782561302185, -0.062967948615551, -0.3019774854183197, 0.07991335541009903, -0.18526001274585724, -0.17157448828220367, 0.1864899843931198, -0.09087774902582169, 0.4286309778690338, 0.2904210686683655, -0.024528585374355316, 0.26665645837783813, 0.13367612659931183, 0.14309071004390717, -0.36106643080711365, -0.13670958578586578, -0.30369627475738525, 0.1385583132505417, -0.44116511940956116, 0.21085672080516815, 0.32053983211517334, -0.22755147516727448, -0.42962637543678284, -0.4441453218460083, -0.1688179075717926, 0.08649163693189621, 0.02247144654393196, 0.04042454808950424, -0.13046365976333618, -0.2619941532611847, 0.4045608341693878, 0.4044974744319916, 0.14387135207653046, -0.2779010236263275, -0.05692802742123604, 0.04371335729956627, -0.12496551871299744, 0.102383092045784, 0.1457618623971939, -0.5075299739837646, -0.025292551144957542, -0.22071534395217896, -0.2840591073036194, -0.20636339485645294, 0.2801445722579956, 0.18352334201335907, -0.07548033446073532, 0.07704337686300278, -0.22069987654685974, 0.10991057008504868, 0.08959941565990448, -0.3216734826564789], [-0.16968359053134918, 0.10871870070695877, -0.08545868843793869, -0.11676404625177383, -0.022047605365514755, -0.5090456604957581, 0.0651763454079628, -0.5407865047454834, -0.03841334581375122, -0.143352210521698, -0.002150555606931448, 0.02119431644678116, -0.34979382157325745, 0.06307810544967651, -0.013565286062657833, 0.06338473409414291, 0.3420262336730957, -0.35860317945480347, -0.2728364169597626, 0.084001824259758, -0.6498730778694153, 0.34322085976600647, -0.1334730088710785, -0.10606927424669266, -0.21382148563861847, -0.2681580185890198, 0.04471869766712189, -0.06721499562263489, 0.20276066660881042, -0.06899764388799667, -0.38833338022232056, 0.18192173540592194, 0.29392993450164795, 0.03535112738609314, -0.26367080211639404, -0.14605000615119934, -0.14664053916931152, -0.0285785011947155, -0.61641526222229, 0.38441628217697144, -0.1426158845424652, -0.1948285549879074, -0.029179397970438004, 0.07062038779258728, 0.20651775598526, 0.43934494256973267, -0.11865630000829697, 0.06259311735630035, 0.016073910519480705, -0.26976484060287476, -0.030318185687065125, -0.3949181139469147, 0.037315044552087784, -0.0022449579555541277, -0.21457283198833466, 0.29572057723999023, 0.3195990324020386, 0.4189980924129486, 0.04576006531715393, 0.46835005283355713, -0.04416568949818611, -0.4485895335674286, 0.5162436366081238, 0.20428286492824554, 0.17311573028564453, 0.4868208169937134, -0.016104238107800484, -0.29327571392059326, -0.014169861562550068, -0.6144639253616333, -0.09441160410642624, 0.03781392425298691, 0.009952415712177753, 0.04832004755735397, 0.13237634301185608, -0.24564047157764435, -0.06099850684404373, -0.10231976211071014, 0.11645281314849854, 0.3932352066040039, 0.048140998929739, 0.2588963210582733, -0.15375539660453796, -0.1522502601146698, 0.08679181337356567, 0.12526945769786835, 0.3868734836578369, 0.172496497631073, -0.028115136548876762, 0.22397461533546448, -0.0728602185845375, -0.13795393705368042, 0.030407853424549103, 0.03533061966300011, -0.28197669982910156, 0.34718137979507446, 0.1978982836008072, 0.10275514423847198, 0.07302074134349823, -0.16422773897647858, 0.006884831935167313, -0.14644311368465424, 0.00773498835042119, 0.35846227407455444, 0.14603479206562042, 0.021673521026968956, 0.011558634229004383, 0.30045512318611145, 0.1854676455259323, 0.0768316462635994, -0.09530789405107498, 0.1592322140932083, 0.17750559747219086, -0.009301899001002312, -0.09635993093252182, -0.47615575790405273, 0.19100740551948547, 0.34758424758911133, -0.19480779767036438, 0.3611055612564087, 0.024382079020142555, -0.4164118468761444, -0.2285185009241104, -0.12012611329555511, 0.2098817527294159, 0.20412640273571014, 0.34402647614479065, 0.08585123717784882, -0.11120864003896713, 0.13305288553237915, 0.16294461488723755, 0.003308648243546486, -0.5173333883285522, -0.2108956277370453, 0.6044714450836182, -0.18590132892131805, -0.1456938534975052, 0.2589832842350006, 0.19639381766319275, -0.11470339447259903, -0.03709961473941803, 0.17117105424404144, -0.5083468556404114, -0.2685947120189667, 0.4071161448955536, 0.06385766714811325, 0.18653209507465363, -0.05079558491706848, -0.20833328366279602, -0.23782555758953094, -0.6170573830604553, -0.16664855182170868, 0.1294548511505127, -0.20862816274166107, -0.4032204747200012, -0.20065666735172272, 0.29213255643844604, -0.26768866181373596, 0.0015034358948469162, -0.12453777343034744, 0.19703121483325958, 0.03791622444987297, 0.019995437934994698, 0.4902938902378082, 0.3077492415904999, 0.018453655764460564, -0.14394479990005493, -0.1802639365196228, 0.011384767480194569, 0.14378571510314941, -0.11607905477285385, 0.0888587236404419, 0.07666342705488205, 0.1479351669549942, -0.05205423757433891, 0.14934353530406952, 0.06759653240442276, 0.23852774500846863, 0.39810284972190857, -0.00615712022408843, -0.24376161396503448, -0.2956470549106598, 0.0866771936416626, 0.09991621226072311, 0.15340562164783478, 0.047668904066085815, 0.1205475777387619, 0.13690562546253204, -0.21346135437488556, -0.06503286957740784, 0.1395532637834549, 0.06778337806463242, -0.06555527448654175, -0.22944018244743347, 0.28658485412597656, -0.1965545266866684, 0.25675904750823975, 0.18555870652198792, -0.11772821098566055, 0.2569202482700348, -0.04158512130379677, 0.006098511163145304, -0.0732780322432518, -0.0317440889775753, 0.3391978144645691, 0.02473764680325985, -0.25273099541664124, 0.23095294833183289, -0.3934578001499176, -0.23872628808021545, -0.07265769690275192, -0.1906653791666031, 0.25401562452316284, -0.48156729340553284, -0.1004343256354332, 0.041625265032052994, 0.06840235739946365, -0.2827688455581665, -0.15493495762348175, -0.19504758715629578, -0.27087077498435974, -0.15078894793987274, -0.14709635078907013, 0.21097047626972198, 0.16717438399791718, -0.00853764172643423, -0.22127048671245575, -0.039491813629865646, 0.334399551153183, 0.3492228090763092, -0.05478130653500557, 0.06571508944034576, -0.11668920516967773, -0.23333416879177094, -0.10522216558456421, -0.08265066891908646, 0.368834525346756, -0.37742236256599426, -0.1992478221654892, 0.12107082456350327, -0.5518811941146851, 0.15950511395931244, 0.025598859414458275, 0.007728915195912123, 0.017831355333328247, 0.07376915216445923, -0.1151231974363327, -0.13663595914840698, 0.0423324890434742, 0.03886149078607559, -0.12881608307361603, 0.3050384223461151, 0.20697234570980072, -0.3035084009170532, 0.05586506053805351, -0.1628262847661972], [0.09968922287225723, -0.23031851649284363, 0.2536350190639496, -0.535147488117218, -0.017123598605394363, -0.36807316541671753, -0.1117364838719368, 0.45227640867233276, -0.037478554993867874, -0.31469041109085083, 0.1480516791343689, 0.12237896025180817, -0.018658658489584923, 0.10236856341362, 0.04082290828227997, -0.008091594092547894, -0.3740016222000122, -0.03751867264509201, 0.17423906922340393, -0.32038864493370056, 0.2908336818218231, -0.0821368396282196, 0.32563814520835876, -0.0779760479927063, -0.19223424792289734, -0.43894162774086, 0.20777735114097595, -0.4373912811279297, -0.37016087770462036, 0.249389186501503, 0.42275044322013855, -0.317111998796463, -0.13116759061813354, 0.1627293825149536, -0.2617599666118622, -0.013388155028223991, 0.039415307343006134, 0.20157133042812347, -0.026813356205821037, 0.037187520414590836, -0.13725674152374268, 0.4536104202270508, 0.05582864210009575, 0.03431151434779167, -0.39570173621177673, 0.1850944310426712, -0.2332664132118225, 0.21276195347309113, -0.06199611350893974, 0.14031091332435608, 0.44660502672195435, 0.30887746810913086, -0.05037839710712433, -0.33425962924957275, 0.1598767787218094, -0.39633414149284363, -0.16876046359539032, -0.11121620982885361, 0.024893242865800858, -0.4125235974788666, 0.00036675328738056123, -0.14729933440685272, 0.06899251788854599, 0.24773694574832916, -0.01055392436683178, 0.06854624301195145, -0.3914382755756378, 0.22861719131469727, 0.07374047487974167, 0.15391765534877777, 0.1980496048927307, 0.32597121596336365, 0.202773779630661, 0.31491851806640625, -0.08042839914560318, -0.23293203115463257, 0.3527798056602478, 0.1575595885515213, 0.20782043039798737, 0.12312541157007217, 0.380772203207016, -0.25162386894226074, 0.26555338501930237, -0.016825219616293907, 0.19565653800964355, 0.25125783681869507, 0.1006106436252594, -0.34797224402427673, 0.1253768503665924, 0.23741690814495087, 0.11860502511262894, 0.12289198487997055, -0.1266089528799057, -0.07253918796777725, -0.049420323222875595, -0.15833942592144012, -0.006455255206674337, 0.0687263086438179, -0.1471947431564331, -0.2644994556903839, 0.1171545535326004, 0.22592613101005554, -0.6576620936393738, -0.11635027825832367, -0.2400963008403778, -0.15047328174114227, 0.0879206657409668, -0.027707064524292946, -0.21528594195842743, -0.5639643669128418, 0.00157924834638834, -0.25815609097480774, 0.22584077715873718, 0.02634243294596672, 0.5977113246917725, 0.7277888059616089, -0.49402332305908203, 0.1180863156914711, -0.48306769132614136, 0.09278340637683868, 0.47490188479423523, 0.09626488387584686, 0.22282761335372925, -0.04349943622946739, 0.3041326701641083, -0.2361784428358078, -0.44574862718582153, 0.420849084854126, -0.17334769666194916, 0.16532157361507416, -0.39548155665397644, 0.2647115886211395, -0.06264055520296097, 0.3277074992656708, -0.45170584321022034, -0.04865835979580879, -0.32656052708625793, -0.0925285741686821, 0.025881681591272354, -0.11175835877656937, 0.06235190108418465, 0.37452128529548645, 0.41439640522003174, 0.4006843566894531, -0.1206761971116066, -0.44642895460128784, -0.2902035117149353, 0.038052286952733994, 0.25162994861602783, 0.1307833343744278, 0.4213462173938751, -0.048315491527318954, -0.08722592145204544, -0.25267258286476135, 0.3325815200805664, 0.09902386367321014, 0.14779043197631836, 0.39495453238487244, -0.34665948152542114, -0.03964454308152199, 0.11844860017299652, -0.13657508790493011, 0.08372019231319427, 0.09692275524139404, 0.11901859939098358, -0.02032865211367607, 0.18106035888195038, -0.2057131975889206, 0.20354092121124268, -0.3825536072254181, 0.15286536514759064, -0.11028562486171722, 0.7132932543754578, -0.170756995677948, 0.17738625407218933, -0.16332784295082092, 0.010819515213370323, -0.47349411249160767, -0.014630503952503204, 0.5438137650489807, -0.08517209440469742, 0.5904678702354431, -0.04264847934246063, -0.20593875646591187, -0.05300471559166908, 0.04929174482822418, 0.3563699424266815, 0.22527368366718292, -0.36860886216163635, -0.27068784832954407, 0.0004498628550209105, -0.5016219615936279, -0.08392977714538574, 0.15153616666793823, -0.32581987977027893, 0.04302016645669937, -0.04428646340966225, -0.27857962250709534, -0.06498146802186966, -0.0817224457859993, -0.2526831328868866, 0.2873833477497101, -0.21179305016994476, 0.004103817977011204, 0.16092796623706818, -0.2477230578660965, -0.0823698565363884, -0.08985267579555511, -0.3318072557449341, -0.31737861037254333, 0.2431672215461731, -0.01087362039834261, -0.32203495502471924, 0.5082924962043762, -0.357917457818985, 0.04934355989098549, 0.0290805883705616, -0.012408150359988213, -0.4973325729370117, 0.25414231419563293, -0.2753247916698456, -0.21304745972156525, -0.2952605187892914, 0.48635685443878174, 0.13928021490573883, 0.035015691071748734, 0.29763063788414, 0.14831896126270294, 0.20882833003997803, 0.13026000559329987, -0.18639753758907318, 0.050684183835983276, 0.3153069019317627, -0.35813963413238525, 0.05454150214791298, -0.21538493037223816, 0.35898324847221375, -0.44751206040382385, 0.044819749891757965, -0.33120661973953247, -0.258584588766098, 0.40008383989334106, 0.3745840787887573, -0.04718810319900513, 0.15037837624549866, -0.3591547906398773, 0.054411232471466064, -0.30780330300331116, -0.1428317278623581, 0.34763890504837036, 0.016076844185590744, 0.0346735380589962, -0.15739867091178894, -0.1318032592535019, 0.17239739000797272, -0.16870902478694916], [0.12058347463607788, 0.25204169750213623, -0.06738683581352234, 0.026291992515325546, 0.09558738023042679, -0.24283623695373535, -0.07804546505212784, -0.10731184482574463, -0.2387423813343048, 0.1395118534564972, -0.0031937414314597845, -0.15778076648712158, -0.05214802175760269, -0.08833475410938263, 0.30422550439834595, 0.4920578896999359, 0.32007503509521484, -0.020155126228928566, -0.20892992615699768, 0.13604716956615448, -0.1279739886522293, 0.11042732000350952, -0.18797460198402405, 0.2467079758644104, 0.15813829004764557, -0.1633855253458023, 0.41008713841438293, 0.19163130223751068, -0.30356109142303467, -0.16968829929828644, 0.033225007355213165, 0.0986558273434639, -0.05449702963232994, 0.44678521156311035, 0.462296724319458, 0.0666431337594986, -0.05043511465191841, -0.1559545397758484, 0.10909724980592728, 0.06403902173042297, -0.211073637008667, -0.015698017552495003, -0.02238766849040985, -0.10059742629528046, 0.13411064445972443, -0.5111973285675049, -0.028135990723967552, 0.14933717250823975, 0.22613093256950378, 0.22701814770698547, 0.05160260200500488, -0.246613010764122, -0.16116520762443542, -0.5428428649902344, 0.06388384103775024, -0.2897427976131439, 0.022575855255126953, 0.2934914231300354, -0.27467039227485657, 0.2725726366043091, -0.15011999011039734, -0.09530813992023468, 0.1851201355457306, 0.2440914660692215, 0.03319091722369194, 0.0020144619047641754, -0.08422239869832993, -0.0942314863204956, 0.05830147862434387, -0.2316761165857315, -0.19526246190071106, -0.083467036485672, -0.48425596952438354, 0.13235174119472504, -0.1391449272632599, 0.17785874009132385, 0.26357221603393555, -0.007440880872309208, -0.26275113224983215, -0.3115052580833435, 0.027444953098893166, 